booster[0]:
0:[f1149<1] yes=1,no=2,missing=2
	1:[f632<1] yes=3,no=4,missing=4
		3:leaf=-1.63764286
		4:leaf=0.422214448
	2:leaf=1.91113937
booster[1]:
0:[f331<1] yes=1,no=2,missing=2
	1:[f671<1] yes=3,no=4,missing=4
		3:leaf=-0.510277033
		4:leaf=1.02902639
	2:leaf=5.6329875
booster[2]:
0:[f635<1] yes=1,no=2,missing=2
	1:[f1149<1] yes=3,no=4,missing=4
		3:leaf=-0.924926817
		4:leaf=0.538974047
	2:[f1550<1] yes=5,no=6,missing=6
		5:leaf=1.14970839
		6:leaf=1.752316
booster[3]:
0:[f3084<1] yes=1,no=2,missing=2
	1:[f1530<1] yes=3,no=4,missing=4
		3:leaf=-0.208434269
		4:leaf=1.06722379
	2:[f1847<1] yes=5,no=6,missing=6
		5:leaf=4.79516029
		6:leaf=13.7433052
booster[4]:
0:[f1149<1] yes=1,no=2,missing=2
	1:[f632<1] yes=3,no=4,missing=4
		3:leaf=-0.680308521
		4:leaf=0.445468307
	2:leaf=1.04954636
booster[5]:
0:[f1550<1] yes=1,no=2,missing=2
	1:[f331<1] yes=3,no=4,missing=4
		3:leaf=-0.373890728
		4:leaf=0.296503395
	2:[f632<1] yes=5,no=6,missing=6
		5:leaf=0.296503395
		6:leaf=1.20710409
booster[6]:
0:[f671<1] yes=1,no=2,missing=2
	1:[f331<1] yes=3,no=4,missing=4
		3:leaf=-0.232564658
		4:leaf=0.354062587
	2:[f1530<1] yes=5,no=6,missing=6
		5:leaf=0.354062587
		6:leaf=2.25141668
booster[7]:
0:[f1149<1] yes=1,no=2,missing=2
	1:[f634<1] yes=3,no=4,missing=4
		3:leaf=-0.318026632
		4:leaf=0.511562824
	2:leaf=1.03027666
booster[8]:
0:[f331<1] yes=1,no=2,missing=2
	1:[f1242<1] yes=3,no=4,missing=4
		3:leaf=-0.175728604
		4:leaf=0.479551673
	2:leaf=1.04805887
booster[9]:
0:[f2885<1] yes=1,no=2,missing=2
	1:[f1149<1] yes=3,no=4,missing=4
		3:leaf=0.0155824507
		4:leaf=0.966270268
	2:leaf=2.741328
booster[10]:
0:[f331<1] yes=1,no=2,missing=2
	1:[f635<1] yes=3,no=4,missing=4
		3:leaf=-0.229266122
		4:leaf=0.250049651
	2:leaf=0.962861657
booster[11]:
0:[f1242<1] yes=1,no=2,missing=2
	1:[f1149<1] yes=3,no=4,missing=4
		3:leaf=-0.0854933932
		4:leaf=0.487034231
	2:leaf=1.01466787
booster[12]:
0:[f736<1] yes=1,no=2,missing=2
	1:[f3494<1] yes=3,no=4,missing=4
		3:leaf=-0.00694579398
		4:leaf=0.981917322
	2:leaf=2.00200224
booster[13]:
0:[f1530<1] yes=1,no=2,missing=2
	1:[f1550<1] yes=3,no=4,missing=4
		3:leaf=-0.139755055
		4:leaf=0.181946486
	2:[f671<1] yes=5,no=6,missing=6
		5:leaf=0.181946486
		6:leaf=1.09274244
booster[14]:
0:[f331<1] yes=1,no=2,missing=2
	1:[f634<1] yes=3,no=4,missing=4
		3:leaf=-0.240110829
		4:leaf=0.197719276
	2:leaf=0.89454037
booster[15]:
0:[f1756<1] yes=1,no=2,missing=2
	1:[f1149<1] yes=3,no=4,missing=4
		3:leaf=-0.0534124002
		4:leaf=0.814596415
	2:leaf=1.64216459
booster[16]:
0:[f1242<1] yes=1,no=2,missing=2
	1:[f1146<1] yes=3,no=4,missing=4
		3:leaf=-0.0385639556
		4:leaf=0.432182938
	2:leaf=0.882551134
booster[17]:
0:[f674<1] yes=1,no=2,missing=2
	1:[f2487<1] yes=3,no=4,missing=4
		3:leaf=-0.00444774562
		4:leaf=0.737256169
	2:leaf=1.46081209
booster[18]:
0:[f2746<1] yes=1,no=2,missing=2
	1:[f331<1] yes=3,no=4,missing=4
		3:leaf=-0.0276562236
		4:leaf=0.418682665
	2:leaf=0.84307915
booster[19]:
0:[f1149<1] yes=1,no=2,missing=2
	1:[f634<1] yes=3,no=4,missing=4
		3:leaf=-0.11195913
		4:leaf=0.117207326
	2:leaf=0.754748762
booster[20]:
0:[f3494<1] yes=1,no=2,missing=2
	1:[f1242<1] yes=3,no=4,missing=4
		3:leaf=-0.0341771618
		4:leaf=0.331702143
	2:[f1551<1] yes=5,no=6,missing=6
		5:leaf=0.331702143
		6:leaf=1.26549971
booster[21]:
0:[f535<1] yes=1,no=2,missing=2
	1:[f331<1] yes=3,no=4,missing=4
		3:leaf=-0.0170547608
		4:leaf=0.428945869
	2:leaf=0.856872141
booster[22]:
0:[f736<1] yes=1,no=2,missing=2
	1:[f1242<1] yes=3,no=4,missing=4
		3:leaf=-0.0137724662
		4:leaf=0.469826758
	2:leaf=0.93942368
booster[23]:
0:[f463<1] yes=1,no=2,missing=2
	1:[f331<1] yes=3,no=4,missing=4
		3:leaf=-0.0101872999
		4:leaf=0.342128515
	2:leaf=0.68258512
booster[24]:
0:[f2487<1] yes=1,no=2,missing=2
	1:[f634<1] yes=3,no=4,missing=4
		3:leaf=-0.0748770833
		4:leaf=0.0702549294
	2:[f2920<1] yes=5,no=6,missing=6
		5:leaf=0.297753513
		6:leaf=1.33552456
booster[25]:
0:[f1872<1] yes=1,no=2,missing=2
	1:[f1530<1] yes=3,no=4,missing=4
		3:leaf=-0.0783996582
		4:leaf=0.20343706
	2:leaf=1.65235889
booster[26]:
0:[f1149<1] yes=1,no=2,missing=2
	1:[f634<1] yes=3,no=4,missing=4
		3:leaf=-0.088815555
		4:leaf=0.0706703812
	2:leaf=0.639474511
booster[27]:
0:[f2885<1] yes=1,no=2,missing=2
	1:[f671<1] yes=3,no=4,missing=4
		3:leaf=-0.0554610416
		4:leaf=0.192566425
	2:leaf=0.750418067
booster[28]:
0:[f331<1] yes=1,no=2,missing=2
	1:[f634<1] yes=3,no=4,missing=4
		3:leaf=-0.082447283
		4:leaf=0.0558731817
	2:leaf=0.627870739
booster[29]:
0:[f1242<1] yes=1,no=2,missing=2
	1:[f2746<1] yes=3,no=4,missing=4
		3:leaf=-0.015003087
		4:leaf=0.300167322
	2:leaf=0.605171323
booster[30]:
0:[f1699<1] yes=1,no=2,missing=2
	1:[f1756<1] yes=3,no=4,missing=4
		3:leaf=-0.00387158338
		4:leaf=0.290634573
	2:leaf=0.576217055
booster[31]:
0:[f1149<1] yes=1,no=2,missing=2
	1:[f1146<1] yes=3,no=4,missing=4
		3:leaf=-0.00644299295
		4:leaf=0.252457976
	2:leaf=0.504922628
booster[32]:
0:[f2885<1] yes=1,no=2,missing=2
	1:[f3494<1] yes=3,no=4,missing=4
		3:leaf=-0.00484312419
		4:leaf=0.197939634
	2:leaf=0.393468827
booster[33]:
0:[f1146<1] yes=1,no=2,missing=2
	1:[f1530<1] yes=3,no=4,missing=4
		3:leaf=-0.0158368722
		4:leaf=0.0773253143
	2:leaf=0.28830868
booster[34]:
0:[f634<1] yes=1,no=2,missing=2
	1:[f1556<1] yes=3,no=4,missing=4
		3:leaf=-0.201530218
		4:leaf=-0.00336826593
	2:[f1550<1] yes=5,no=6,missing=6
		5:leaf=-0.00336826593
		6:leaf=0.561952055
booster[35]:
0:[f671<1] yes=1,no=2,missing=2
	1:[f331<1] yes=3,no=4,missing=4
		3:leaf=0.0222541094
		4:leaf=0.119722992
	2:[f1570<1] yes=5,no=6,missing=6
		5:leaf=0.119722992
		6:leaf=0.785384059
booster[36]:
0:[f331<1] yes=1,no=2,missing=2
	1:[f635<1] yes=3,no=4,missing=4
		3:leaf=-0.11000444
		4:leaf=-0.00114755367
	2:leaf=0.505231321
booster[37]:
0:[f1242<1] yes=1,no=2,missing=2
	1:[f2885<1] yes=3,no=4,missing=4
		3:leaf=-0.0102519337
		4:leaf=0.251998961
	2:leaf=0.509249449
booster[38]:
0:[f3494<1] yes=1,no=2,missing=2
	1:[f1699<1] yes=3,no=4,missing=4
		3:leaf=-0.00398659194
		4:leaf=0.105855219
	2:[f1551<1] yes=5,no=6,missing=6
		5:leaf=0.105855219
		6:leaf=1.207865
booster[39]:
0:[f674<1] yes=1,no=2,missing=2
	1:[f535<1] yes=3,no=4,missing=4
		3:leaf=-0.00958571024
		4:leaf=0.114372469
	2:leaf=0.233532161
booster[40]:
0:[f1699<1] yes=1,no=2,missing=2
	1:[f1756<1] yes=3,no=4,missing=4
		3:leaf=-0.00792315789
		4:leaf=0.0921214297
	2:leaf=0.18354474
booster[41]:
0:[f635<1] yes=1,no=2,missing=2
	1:[f1556<1] yes=3,no=4,missing=4
		3:leaf=-0.212583154
		4:leaf=0.000640364364
	2:[f1551<1] yes=5,no=6,missing=6
		5:leaf=0.0124133509
		6:leaf=0.676554382
booster[42]:
0:[f535<1] yes=1,no=2,missing=2
	1:[f1550<1] yes=3,no=4,missing=4
		3:leaf=0.0559006706
		4:leaf=0.135756269
	2:leaf=0.229395568
booster[43]:
0:[f1146<1] yes=1,no=2,missing=2
	1:[f1699<1] yes=3,no=4,missing=4
		3:leaf=-0.00307467324
		4:leaf=0.104584299
	2:leaf=0.209273338
booster[44]:
0:[f2885<1] yes=1,no=2,missing=2
	1:[f674<1] yes=3,no=4,missing=4
		3:leaf=-0.00151816162
		4:leaf=0.0750008449
	2:leaf=0.149164021
booster[45]:
0:[f674<1] yes=1,no=2,missing=2
	1:[f1756<1] yes=3,no=4,missing=4
		3:leaf=-0.00103353278
		4:leaf=0.0518314689
	2:leaf=0.102415852
booster[46]:
0:[f2885<1] yes=1,no=2,missing=2
	1:[f1699<1] yes=3,no=4,missing=4
		3:leaf=-0.000752312946
		4:leaf=0.0375062637
	2:leaf=0.074653849
booster[47]:
0:[f535<1] yes=1,no=2,missing=2
	1:[f1530<1] yes=3,no=4,missing=4
		3:leaf=-0.00549404742
		4:leaf=0.0213158019
	2:leaf=0.0426153839
booster[48]:
0:[f1146<1] yes=1,no=2,missing=2
	1:[f2885<1] yes=3,no=4,missing=4
		3:leaf=9.36678407e-05
		4:leaf=0.0294925552
	2:leaf=0.0583090074
booster[49]:
0:[f1699<1] yes=1,no=2,missing=2
	1:[f1756<1] yes=3,no=4,missing=4
		3:leaf=-0.00863654632
		4:leaf=0.0151138417
	2:leaf=0.0300398376
booster[50]:
0:[f1146<1] yes=1,no=2,missing=2
	1:[f2885<1] yes=3,no=4,missing=4
		3:leaf=0.00765069108
		4:leaf=0.0206027888
	2:leaf=0.0332136974
booster[51]:
0:[f1146<1] yes=1,no=2,missing=2
	1:[f2885<1] yes=3,no=4,missing=4
		3:leaf=6.84643892e-05
		4:leaf=0.00836281013
	2:leaf=0.0164242145
booster[52]:
0:[f535<1] yes=1,no=2,missing=2
	1:[f1530<1] yes=3,no=4,missing=4
		3:leaf=-0.00160316937
		4:leaf=0.00440010661
	2:leaf=0.00875679683
booster[53]:
0:[f2885<1] yes=1,no=2,missing=2
	1:[f1146<1] yes=3,no=4,missing=4
		3:leaf=0.000468590646
		4:leaf=0.00508542499
	2:leaf=0.00955659617
booster[54]:
0:[f1699<1] yes=1,no=2,missing=2
	1:[f1756<1] yes=3,no=4,missing=4
		3:leaf=-0.00839376543
		4:leaf=0.00346835866
	2:leaf=0.00689306995
booster[55]:
0:leaf=0.00810532551
booster[56]:
0:[f1146<1] yes=1,no=2,missing=2
	1:[f2885<1] yes=3,no=4,missing=4
		3:leaf=-0.000115673058
		4:leaf=0.0032350847
	2:leaf=0.00650391262
booster[57]:
0:[f2885<1] yes=1,no=2,missing=2
	1:[f1146<1] yes=3,no=4,missing=4
		3:leaf=-1.312569e-06
		4:leaf=0.00165594462
	2:leaf=0.00325927162
booster[58]:
0:[f1146<1] yes=1,no=2,missing=2
	1:[f535<1] yes=3,no=4,missing=4
		3:leaf=-1.17493601e-05
		4:leaf=0.00120274839
	2:leaf=0.00237825327
booster[59]:
0:[f2885<1] yes=1,no=2,missing=2
	1:[f1146<1] yes=3,no=4,missing=4
		3:leaf=-1.25428905e-05
		4:leaf=0.000758648501
	2:leaf=0.00151002582
booster[60]:
0:[f1146<1] yes=1,no=2,missing=2
	1:leaf=1.24968519e-05
	2:leaf=0.000792540552
booster[61]:
0:[f2885<1] yes=1,no=2,missing=2
	1:leaf=-5.83654946e-06
	2:leaf=0.000748727587
booster[62]:
0:leaf=6.52069411e-06
booster[63]:
0:leaf=-4.00528677e-07
booster[64]:
0:leaf=-3.81035647e-08
booster[65]:
0:leaf=-3.58983243e-08
booster[66]:
0:leaf=-3.09977892e-08
booster[67]:
0:leaf=-2.90375759e-08
booster[68]:
0:leaf=-2.90375759e-08
booster[69]:
0:leaf=-2.85475235e-08
booster[70]:
0:leaf=-2.85475235e-08
booster[71]:
0:leaf=-2.80574692e-08
booster[72]:
0:leaf=-2.80574692e-08
booster[73]:
0:leaf=-2.80574692e-08
booster[74]:
0:leaf=-2.80574692e-08
booster[75]:
0:leaf=-2.80574692e-08
booster[76]:
0:leaf=-2.75674168e-08
booster[77]:
0:leaf=-2.75674168e-08
booster[78]:
0:leaf=-2.41370426e-08
booster[79]:
0:leaf=-2.41370426e-08
booster[80]:
0:leaf=-2.41370426e-08
booster[81]:
0:leaf=-2.36469884e-08
booster[82]:
0:leaf=-2.36469884e-08
booster[83]:
0:leaf=-2.36469884e-08
booster[84]:
0:leaf=-2.36469884e-08
booster[85]:
0:leaf=-2.36469884e-08
booster[86]:
0:leaf=-2.36469884e-08
booster[87]:
0:leaf=-1.97265617e-08
booster[88]:
0:leaf=-1.97265617e-08
booster[89]:
0:leaf=-1.97265617e-08
booster[90]:
0:leaf=-1.58061351e-08
booster[91]:
0:leaf=-1.58061351e-08
booster[92]:
0:leaf=-1.58061351e-08
booster[93]:
0:leaf=-1.53160826e-08
booster[94]:
0:leaf=-1.53160826e-08
booster[95]:
0:leaf=-1.53160826e-08
booster[96]:
0:leaf=-1.53160826e-08
booster[97]:
0:leaf=-1.53160826e-08
booster[98]:
0:leaf=-1.53160826e-08
booster[99]:
0:leaf=-1.53160826e-08
