booster[0]:
0:[f1149<1] yes=1,no=2,missing=2
	1:[f632<1] yes=3,no=4,missing=4
		3:leaf=-1.63764286
		4:leaf=0.422214448
	2:leaf=1.91113937
booster[1]:
0:[f331<1] yes=1,no=2,missing=2
	1:[f671<1] yes=3,no=4,missing=4
		3:leaf=-0.510277033
		4:leaf=1.02902639
	2:leaf=5.6329875
booster[2]:
0:[f635<1] yes=1,no=2,missing=2
	1:[f1149<1] yes=3,no=4,missing=4
		3:leaf=-0.924926817
		4:leaf=0.538974047
	2:[f1550<1] yes=5,no=6,missing=6
		5:leaf=1.14970839
		6:leaf=1.752316
booster[3]:
0:[f3084<1] yes=1,no=2,missing=2
	1:[f1530<1] yes=3,no=4,missing=4
		3:leaf=-0.208434269
		4:leaf=1.06722379
	2:[f1847<1] yes=5,no=6,missing=6
		5:leaf=4.79516029
		6:leaf=13.7433052
booster[4]:
0:[f1149<1] yes=1,no=2,missing=2
	1:[f632<1] yes=3,no=4,missing=4
		3:leaf=-0.680308521
		4:leaf=0.445468307
	2:leaf=1.04954636
booster[5]:
0:[f1550<1] yes=1,no=2,missing=2
	1:[f331<1] yes=3,no=4,missing=4
		3:leaf=-0.373890728
		4:leaf=0.296503395
	2:[f632<1] yes=5,no=6,missing=6
		5:leaf=0.296503395
		6:leaf=1.20710409
booster[6]:
0:[f671<1] yes=1,no=2,missing=2
	1:[f331<1] yes=3,no=4,missing=4
		3:leaf=-0.232564658
		4:leaf=0.354062587
	2:[f1530<1] yes=5,no=6,missing=6
		5:leaf=0.354062587
		6:leaf=2.25141668
booster[7]:
0:[f1149<1] yes=1,no=2,missing=2
	1:[f634<1] yes=3,no=4,missing=4
		3:leaf=-0.318026632
		4:leaf=0.511562824
	2:leaf=1.03027666
booster[8]:
0:[f331<1] yes=1,no=2,missing=2
	1:[f1242<1] yes=3,no=4,missing=4
		3:leaf=-0.175728604
		4:leaf=0.479551673
	2:leaf=1.04805887
booster[9]:
0:[f2885<1] yes=1,no=2,missing=2
	1:[f1149<1] yes=3,no=4,missing=4
		3:leaf=0.0155824507
		4:leaf=0.966270268
	2:leaf=2.741328
