{"learner":{"attributes":{},"feature_names":[],"feature_types":[],"gradient_booster":{"model":{"gbtree_model_param":{"num_parallel_tree":"1","num_trees":"1000"},"iteration_indptr":[0,1,2,3,4,5,6,7,8,9,10,11,12,13,14,15,16,17,18,19,20,21,22,23,24,25,26,27,28,29,30,31,32,33,34,35,36,37,38,39,40,41,42,43,44,45,46,47,48,49,50,51,52,53,54,55,56,57,58,59,60,61,62,63,64,65,66,67,68,69,70,71,72,73,74,75,76,77,78,79,80,81,82,83,84,85,86,87,88,89,90,91,92,93,94,95,96,97,98,99,100,101,102,103,104,105,106,107,108,109,110,111,112,113,114,115,116,117,118,119,120,121,122,123,124,125,126,127,128,129,130,131,132,133,134,135,136,137,138,139,140,141,142,143,144,145,146,147,148,149,150,151,152,153,154,155,156,157,158,159,160,161,162,163,164,165,166,167,168,169,170,171,172,173,174,175,176,177,178,179,180,181,182,183,184,185,186,187,188,189,190,191,192,193,194,195,196,197,198,199,200,201,202,203,204,205,206,207,208,209,210,211,212,213,214,215,216,217,218,219,220,221,222,223,224,225,226,227,228,229,230,231,232,233,234,235,236,237,238,239,240,241,242,243,244,245,246,247,248,249,250,251,252,253,254,255,256,257,258,259,260,261,262,263,264,265,266,267,268,269,270,271,272,273,274,275,276,277,278,279,280,281,282,283,284,285,286,287,288,289,290,291,292,293,294,295,296,297,298,299,300,301,302,303,304,305,306,307,308,309,310,311,312,313,314,315,316,317,318,319,320,321,322,323,324,325,326,327,328,329,330,331,332,333,334,335,336,337,338,339,340,341,342,343,344,345,346,347,348,349,350,351,352,353,354,355,356,357,358,359,360,361,362,363,364,365,366,367,368,369,370,371,372,373,374,375,376,377,378,379,380,381,382,383,384,385,386,387,388,389,390,391,392,393,394,395,396,397,398,399,400,401,402,403,404,405,406,407,408,409,410,411,412,413,414,415,416,417,418,419,420,421,422,423,424,425,426,427,428,429,430,431,432,433,434,435,436,437,438,439,440,441,442,443,444,445,446,447,448,449,450,451,452,453,454,455,456,457,458,459,460,461,462,463,464,465,466,467,468,469,470,471,472,473,474,475,476,477,478,479,480,481,482,483,484,485,486,487,488,489,490,491,492,493,494,495,496,497,498,499,500,501,502,503,504,505,506,507,508,509,510,511,512,513,514,515,516,517,518,519,520,521,522,523,524,525,526,527,528,529,530,531,532,533,534,535,536,537,538,539,540,541,542,543,544,545,546,547,548,549,550,551,552,553,554,555,556,557,558,559,560,561,562,563,564,565,566,567,568,569,570,571,572,573,574,575,576,577,578,579,580,581,582,583,584,585,586,587,588,589,590,591,592,593,594,595,596,597,598,599,600,601,602,603,604,605,606,607,608,609,610,611,612,613,614,615,616,617,618,619,620,621,622,623,624,625,626,627,628,629,630,631,632,633,634,635,636,637,638,639,640,641,642,643,644,645,646,647,648,649,650,651,652,653,654,655,656,657,658,659,660,661,662,663,664,665,666,667,668,669,670,671,672,673,674,675,676,677,678,679,680,681,682,683,684,685,686,687,688,689,690,691,692,693,694,695,696,697,698,699,700,701,702,703,704,705,706,707,708,709,710,711,712,713,714,715,716,717,718,719,720,721,722,723,724,725,726,727,728,729,730,731,732,733,734,735,736,737,738,739,740,741,742,743,744,745,746,747,748,749,750,751,752,753,754,755,756,757,758,759,760,761,762,763,764,765,766,767,768,769,770,771,772,773,774,775,776,777,778,779,780,781,782,783,784,785,786,787,788,789,790,791,792,793,794,795,796,797,798,799,800,801,802,803,804,805,806,807,808,809,810,811,812,813,814,815,816,817,818,819,820,821,822,823,824,825,826,827,828,829,830,831,832,833,834,835,836,837,838,839,840,841,842,843,844,845,846,847,848,849,850,851,852,853,854,855,856,857,858,859,860,861,862,863,864,865,866,867,868,869,870,871,872,873,874,875,876,877,878,879,880,881,882,883,884,885,886,887,888,889,890,891,892,893,894,895,896,897,898,899,900,901,902,903,904,905,906,907,908,909,910,911,912,913,914,915,916,917,918,919,920,921,922,923,924,925,926,927,928,929,930,931,932,933,934,935,936,937,938,939,940,941,942,943,944,945,946,947,948,949,950,951,952,953,954,955,956,957,958,959,960,961,962,963,964,965,966,967,968,969,970,971,972,973,974,975,976,977,978,979,980,981,982,983,984,985,986,987,988,989,990,991,992,993,994,995,996,997,998,999,1000],"tree_info":[0,0,0,0,0,0,0,0,0,0,0,0,0,0,0,0,0,0,0,0,0,0,0,0,0,0,0,0,0,0,0,0,0,0,0,0,0,0,0,0,0,0,0,0,0,0,0,0,0,0,0,0,0,0,0,0,0,0,0,0,0,0,0,0,0,0,0,0,0,0,0,0,0,0,0,0,0,0,0,0,0,0,0,0,0,0,0,0,0,0,0,0,0,0,0,0,0,0,0,0,0,0,0,0,0,0,0,0,0,0,0,0,0,0,0,0,0,0,0,0,0,0,0,0,0,0,0,0,0,0,0,0,0,0,0,0,0,0,0,0,0,0,0,0,0,0,0,0,0,0,0,0,0,0,0,0,0,0,0,0,0,0,0,0,0,0,0,0,0,0,0,0,0,0,0,0,0,0,0,0,0,0,0,0,0,0,0,0,0,0,0,0,0,0,0,0,0,0,0,0,0,0,0,0,0,0,0,0,0,0,0,0,0,0,0,0,0,0,0,0,0,0,0,0,0,0,0,0,0,0,0,0,0,0,0,0,0,0,0,0,0,0,0,0,0,0,0,0,0,0,0,0,0,0,0,0,0,0,0,0,0,0,0,0,0,0,0,0,0,0,0,0,0,0,0,0,0,0,0,0,0,0,0,0,0,0,0,0,0,0,0,0,0,0,0,0,0,0,0,0,0,0,0,0,0,0,0,0,0,0,0,0,0,0,0,0,0,0,0,0,0,0,0,0,0,0,0,0,0,0,0,0,0,0,0,0,0,0,0,0,0,0,0,0,0,0,0,0,0,0,0,0,0,0,0,0,0,0,0,0,0,0,0,0,0,0,0,0,0,0,0,0,0,0,0,0,0,0,0,0,0,0,0,0,0,0,0,0,0,0,0,0,0,0,0,0,0,0,0,0,0,0,0,0,0,0,0,0,0,0,0,0,0,0,0,0,0,0,0,0,0,0,0,0,0,0,0,0,0,0,0,0,0,0,0,0,0,0,0,0,0,0,0,0,0,0,0,0,0,0,0,0,0,0,0,0,0,0,0,0,0,0,0,0,0,0,0,0,0,0,0,0,0,0,0,0,0,0,0,0,0,0,0,0,0,0,0,0,0,0,0,0,0,0,0,0,0,0,0,0,0,0,0,0,0,0,0,0,0,0,0,0,0,0,0,0,0,0,0,0,0,0,0,0,0,0,0,0,0,0,0,0,0,0,0,0,0,0,0,0,0,0,0,0,0,0,0,0,0,0,0,0,0,0,0,0,0,0,0,0,0,0,0,0,0,0,0,0,0,0,0,0,0,0,0,0,0,0,0,0,0,0,0,0,0,0,0,0,0,0,0,0,0,0,0,0,0,0,0,0,0,0,0,0,0,0,0,0,0,0,0,0,0,0,0,0,0,0,0,0,0,0,0,0,0,0,0,0,0,0,0,0,0,0,0,0,0,0,0,0,0,0,0,0,0,0,0,0,0,0,0,0,0,0,0,0,0,0,0,0,0,0,0,0,0,0,0,0,0,0,0,0,0,0,0,0,0,0,0,0,0,0,0,0,0,0,0,0,0,0,0,0,0,0,0,0,0,0,0,0,0,0,0,0,0,0,0,0,0,0,0,0,0,0,0,0,0,0,0,0,0,0,0,0,0,0,0,0,0,0,0,0,0,0,0,0,0,0,0,0,0,0,0,0,0,0,0,0,0,0,0,0,0,0,0,0,0,0,0,0,0,0,0,0,0,0,0,0,0,0,0,0,0,0,0,0,0,0,0,0,0,0,0,0,0,0,0,0,0,0,0,0,0,0,0,0,0,0,0,0,0,0,0,0,0,0,0,0,0,0,0,0,0,0,0,0,0,0,0,0,0,0,0,0,0,0,0,0,0,0,0,0,0,0,0,0,0,0,0,0,0,0,0,0,0,0,0,0,0,0,0,0,0,0,0,0,0,0,0,0,0,0,0,0,0,0,0,0,0,0,0,0,0,0,0,0,0,0,0,0,0,0,0,0,0,0,0,0,0,0,0,0,0,0,0,0,0,0,0,0,0,0,0,0,0,0,0,0,0,0,0,0,0,0,0,0,0,0,0,0,0,0,0,0,0,0,0,0,0,0,0,0,0,0,0,0,0,0,0,0,0,0,0,0,0,0,0,0,0,0,0,0,0,0,0,0,0,0,0,0,0,0,0,0,0,0,0,0,0,0,0,0,0,0,0,0,0,0,0,0,0,0,0,0,0,0,0,0,0,0,0,0,0,0,0,0,0,0,0,0],"trees":[{"base_weights":[6.339164E-5,-1.0667105E0,1.9111394E0,-1.6376429E0,4.2221445E-1],"categories":[],"categories_nodes":[],"categories_segments":[],"categories_sizes":[],"default_left":[0,0,0,0,0],"id":0,"left_children":[1,3,-1,-1,-1],"loss_changes":[6.712659E3,2.589642E3,0E0,0E0,0E0],"parents":[2147483647,0,0,1,1],"right_children":[2,4,-1,-1,-1],"split_conditions":[1E0,1E0,1.9111394E0,-1.6376429E0,4.2221445E-1],"split_indices":[1149,632,0,0,0],"split_type":[0,0,0,0,0],"sum_hessian":[3.2906406E3,2.1120972E3,1.1785433E3,1.7134283E3,3.9866895E2],"tree_param":{"num_deleted":"0","num_feature":"3514","num_nodes":"5","size_leaf_vector":"1"}},{"base_weights":[2.8319412E-1,3.0446104E-3,5.6329875E0,-5.1027703E-1,1.0290264E0],"categories":[],"categories_nodes":[],"categories_segments":[],"categories_sizes":[],"default_left":[0,0,0,0,0],"id":1,"left_children":[1,3,-1,-1,-1],"loss_changes":[2.7946196E3,9.342221E2,0E0,0E0,0E0],"parents":[2147483647,0,0,1,1],"right_children":[2,4,-1,-1,-1],"split_conditions":[1E0,1E0,5.6329875E0,-5.1027703E-1,1.0290264E0],"split_indices":[331,671,0,0,0],"split_type":[0,0,0,0,0],"sum_hessian":[1.8636554E3,1.7718695E3,9.178589E1,1.1813276E3,5.9054193E2],"tree_param":{"num_deleted":"0","num_feature":"3514","num_nodes":"5","size_leaf_vector":"1"}},{"base_weights":[6.842036E-2,-4.6904323E-1,1.5469913E0,-9.249268E-1,5.3897405E-1,1.1497084E0,1.752316E0],"categories":[],"categories_nodes":[],"categories_segments":[],"categories_sizes":[],"default_left":[0,0,0,0,0,0,0],"id":2,"left_children":[1,3,5,-1,-1,-1,-1],"loss_changes":[1.066024E3,6.295931E2,2.7156555E1,0E0,0E0,0E0,0E0],"parents":[2147483647,0,0,1,1,2,2],"right_children":[2,4,6,-1,-1,-1,-1],"split_conditions":[1E0,1E0,1E0,-9.249268E-1,5.3897405E-1,1.1497084E0,1.752316E0],"split_indices":[635,1149,1550,0,0,0,0],"split_type":[0,0,0,0,0,0,0],"sum_hessian":[1.3395408E3,9.829274E2,3.5661337E2,7.594511E2,2.2347632E2,1.2375637E2,2.32857E2],"tree_param":{"num_deleted":"0","num_feature":"3514","num_nodes":"7","size_leaf_vector":"1"}},{"base_weights":[1.427176E-1,6.0590494E-2,9.52973E0,-2.0843427E-1,1.0672238E0,4.7951603E0,1.3743305E1],"categories":[],"categories_nodes":[],"categories_segments":[],"categories_sizes":[],"default_left":[0,0,0,0,0,0,0],"id":3,"left_children":[1,3,5,-1,-1,-1,-1],"loss_changes":[5.831846E2,2.0377863E2,9.5253235E1,0E0,0E0,0E0,0E0],"parents":[2147483647,0,0,1,1,2,2],"right_children":[2,4,6,-1,-1,-1,-1],"split_conditions":[1E0,1E0,1E0,-2.0843427E-1,1.0672238E0,4.7951603E0,1.3743305E1],"split_indices":[3084,1530,1847,0,0,0,0],"split_type":[0,0,0,0,0,0,0],"sum_hessian":[7.562198E2,7.506587E2,5.5610695E0,5.929773E2,1.5768143E2,3.247433E0,2.3136363E0],"tree_param":{"num_deleted":"0","num_feature":"3514","num_nodes":"7","size_leaf_vector":"1"}},{"base_weights":[5.423051E-2,-1.5860976E-1,1.0495464E0,-6.803085E-1,4.454683E-1],"categories":[],"categories_nodes":[],"categories_segments":[],"categories_sizes":[],"default_left":[0,0,0,0,0],"id":4,"left_children":[1,3,-1,-1,-1],"loss_changes":[1.440042E2,2.2821466E2,0E0,0E0,0E0],"parents":[2147483647,0,0,1,1],"right_children":[2,4,-1,-1,-1],"split_conditions":[1E0,1E0,1.0495464E0,-6.803085E-1,4.454683E-1],"split_indices":[1149,632,0,0,0],"split_type":[0,0,0,0,0],"sum_hessian":[6.779818E2,5.592346E2,1.18747185E2,3.4053195E2,2.187027E2],"tree_param":{"num_deleted":"0","num_feature":"3514","num_nodes":"5","size_leaf_vector":"1"}},{"base_weights":[1.2627055E-1,-1.249169E-1,7.179237E-1,-3.7389073E-1,2.965034E-1,2.965034E-1,1.2071041E0],"categories":[],"categories_nodes":[],"categories_segments":[],"categories_sizes":[],"default_left":[0,0,0,0,0,0,0],"id":5,"left_children":[1,3,5,-1,-1,-1,-1],"loss_changes":[6.732182E1,6.2343918E1,4.4181725E1,0E0,0E0,0E0,0E0],"parents":[2147483647,0,0,1,1,2,2],"right_children":[2,4,6,-1,-1,-1,-1],"split_conditions":[1E0,1E0,1E0,-3.7389073E-1,2.965034E-1,2.965034E-1,1.2071041E0],"split_indices":[1550,331,632,0,0,0,0],"split_type":[0,0,0,0,0,0,0],"sum_hessian":[4.5138882E2,3.1741748E2,1.3397133E2,2.63739E2,5.367847E1,5.2674633E1,8.129669E1],"tree_param":{"num_deleted":"0","num_feature":"3514","num_nodes":"7","size_leaf_vector":"1"}},{"base_weights":[1.484485E-1,-4.1723713E-2,7.498489E-1,-2.3256466E-1,3.540626E-1,3.540626E-1,2.2514167E0],"categories":[],"categories_nodes":[],"categories_segments":[],"categories_sizes":[],"default_left":[0,0,0,0,0,0,0],"id":6,"left_children":[1,3,5,-1,-1,-1,-1],"loss_changes":[4.3145058E1,3.933328E1,6.103358E1,0E0,0E0,0E0,0E0],"parents":[2147483647,0,0,1,1,2,2],"right_children":[2,4,6,-1,-1,-1,-1],"split_conditions":[1E0,1E0,1E0,-2.3256466E-1,3.540626E-1,3.540626E-1,2.2514167E0],"split_indices":[671,331,1530,0,0,0,0],"split_type":[0,0,0,0,0,0,0],"sum_hessian":[3.759687E2,2.863507E2,8.961795E1,2.4446199E2,4.1888733E1,6.968602E1,1.9931929E1],"tree_param":{"num_deleted":"0","num_feature":"3514","num_nodes":"7","size_leaf_vector":"1"}},{"base_weights":[1.0073779E-1,-7.1510603E-3,1.0302767E0,-3.1802663E-1,5.115628E-1],"categories":[],"categories_nodes":[],"categories_segments":[],"categories_sizes":[],"default_left":[0,0,0,0,0],"id":7,"left_children":[1,3,-1,-1,-1],"loss_changes":[3.516791E1,5.4116623E1,0E0,0E0,0E0],"parents":[2147483647,0,0,1,1],"right_children":[2,4,-1,-1,-1],"split_conditions":[1E0,1E0,1.0302767E0,-3.1802663E-1,5.115628E-1],"split_indices":[1149,634,0,0,0],"split_type":[0,0,0,0,0],"sum_hessian":[3.4959967E2,3.1413162E2,3.546803E1,2.0121614E2,1.1291549E2],"tree_param":{"num_deleted":"0","num_feature":"3514","num_nodes":"5","size_leaf_vector":"1"}},{"base_weights":[7.7377774E-2,-8.895555E-2,1.0480589E0,-1.757286E-1,4.7955167E-1],"categories":[],"categories_nodes":[],"categories_segments":[],"categories_sizes":[],"default_left":[0,0,0,0,0],"id":8,"left_children":[1,3,-1,-1,-1],"loss_changes":[4.5931267E1,1.8607533E1,0E0,0E0,0E0],"parents":[2147483647,0,0,1,1],"right_children":[2,4,-1,-1,-1],"split_conditions":[1E0,1E0,1.0480589E0,-1.757286E-1,4.7955167E-1],"split_indices":[331,1242,0,0,0],"split_type":[0,0,0,0,0],"sum_hessian":[2.829031E2,2.4229282E2,4.0610294E1,2.259949E2,1.6297907E1],"tree_param":{"num_deleted":"0","num_feature":"3514","num_nodes":"5","size_leaf_vector":"1"}},{"base_weights":[1.08875774E-1,8.067722E-2,2.741328E0,1.5582451E-2,9.6627027E-1],"categories":[],"categories_nodes":[],"categories_segments":[],"categories_sizes":[],"default_left":[0,0,0,0,0],"id":9,"left_children":[1,3,-1,-1,-1],"loss_changes":[1.8462074E1,1.4399815E1,0E0,0E0,0E0],"parents":[2147483647,0,0,1,1],"right_children":[2,4,-1,-1,-1],"split_conditions":[1E0,1E0,2.741328E0,1.5582451E-2,9.6627027E-1],"split_indices":[2885,1149,0,0,0],"split_type":[0,0,0,0,0],"sum_hessian":[2.5068927E2,2.490521E2,1.6371733E0,2.3294711E2,1.6104984E1],"tree_param":{"num_deleted":"0","num_feature":"3514","num_nodes":"5","size_leaf_vector":"1"}},{"base_weights":[4.5442503E-2,-2.1317907E-2,9.6286166E-1,-2.2926612E-1,2.5004965E-1],"categories":[],"categories_nodes":[],"categories_segments":[],"categories_sizes":[],"default_left":[0,0,0,0,0],"id":10,"left_children":[1,3,-1,-1,-1],"loss_changes":[1.4783443E1,1.2791741E1,0E0,0E0,0E0],"parents":[2147483647,0,0,1,1],"right_children":[2,4,-1,-1,-1],"split_conditions":[1E0,1E0,9.6286166E-1,-2.2926612E-1,2.5004965E-1],"split_indices":[331,635,0,0,0],"split_type":[0,0,0,0,0],"sum_hessian":[2.4003793E2,2.2466582E2,1.5372124E1,1.2728376E2,9.738205E1],"tree_param":{"num_deleted":"0","num_feature":"3514","num_nodes":"5","size_leaf_vector":"1"}},{"base_weights":[3.1147318E-2,-4.0599402E-2,1.0146679E0,-8.549339E-2,4.8703423E-1],"categories":[],"categories_nodes":[],"categories_segments":[],"categories_sizes":[],"default_left":[0,0,0,0,0],"id":11,"left_children":[1,3,-1,-1,-1],"loss_changes":[1.4546612E1,6.6930723E0,0E0,0E0,0E0],"parents":[2147483647,0,0,1,1],"right_children":[2,4,-1,-1,-1],"split_conditions":[1E0,1E0,1.0146679E0,-8.549339E-2,4.8703423E-1],"split_indices":[1242,1149,0,0,0],"split_type":[0,0,0,0,0],"sum_hessian":[2.0456288E2,1.9154837E2,1.3014518E1,1.83678E2,7.8703647E0],"tree_param":{"num_deleted":"0","num_feature":"3514","num_nodes":"5","size_leaf_vector":"1"}},{"base_weights":[5.2784655E-2,2.5022455E-2,2.0020022E0,-6.945794E-3,9.819173E-1],"categories":[],"categories_nodes":[],"categories_segments":[],"categories_sizes":[],"default_left":[0,0,0,0,0],"id":12,"left_children":[1,3,-1,-1,-1],"loss_changes":[1.0487297E1,5.9108E0,0E0,0E0,0E0],"parents":[2147483647,0,0,1,1],"right_children":[2,4,-1,-1,-1],"split_conditions":[1E0,1E0,2.0020022E0,-6.945794E-3,9.819173E-1],"split_indices":[736,3494,0,0,0],"split_type":[0,0,0,0,0],"sum_hessian":[1.9372377E2,1.9200198E2,1.721797E0,1.8675554E2,5.2464466E0],"tree_param":{"num_deleted":"0","num_feature":"3514","num_nodes":"5","size_leaf_vector":"1"}},{"base_weights":[2.562003E-2,-5.252433E-2,4.164173E-1,-1.3975506E-1,1.8194649E-1,1.8194649E-1,1.0927424E0],"categories":[],"categories_nodes":[],"categories_segments":[],"categories_sizes":[],"default_left":[0,0,0,0,0,0,0],"id":13,"left_children":[1,3,5,-1,-1,-1,-1],"loss_changes":[5.914925E0,5.406452E0,1.1717173E1,0E0,0E0,0E0,0E0],"parents":[2147483647,0,0,1,1,2,2],"right_children":[2,4,6,-1,-1,-1,-1],"split_conditions":[1E0,1E0,1E0,-1.3975506E-1,1.8194649E-1,1.8194649E-1,1.0927424E0],"split_indices":[1530,1550,671,0,0,0,0],"split_type":[0,0,0,0,0,0,0],"sum_hessian":[1.9197061E2,1.6070201E2,3.1268597E1,1.3745894E2,2.3243065E1,1.5965415E1,1.5303183E1],"tree_param":{"num_deleted":"0","num_feature":"3514","num_nodes":"7","size_leaf_vector":"1"}},{"base_weights":[1.0993229E-2,-3.074995E-2,8.9454037E-1,-2.4011083E-1,1.9771928E-1],"categories":[],"categories_nodes":[],"categories_segments":[],"categories_sizes":[],"default_left":[0,0,0,0,0],"id":14,"left_children":[1,3,-1,-1,-1],"loss_changes":[7.0292225E0,8.764617E0,0E0,0E0,0E0],"parents":[2147483647,0,0,1,1],"right_children":[2,4,-1,-1,-1],"split_conditions":[1E0,1E0,8.9454037E-1,-2.4011083E-1,1.9771928E-1],"split_indices":[331,634,0,0,0],"split_type":[0,0,0,0,0],"sum_hessian":[1.8884064E2,1.8124301E2,7.597628E0,9.4549934E1,8.669308E1],"tree_param":{"num_deleted":"0","num_feature":"3514","num_nodes":"5","size_leaf_vector":"1"}},{"base_weights":[1.7816922E-2,-1.2971781E-2,1.6421646E0,-5.34124E-2,8.145964E-1],"categories":[],"categories_nodes":[],"categories_segments":[],"categories_sizes":[],"default_left":[0,0,0,0,0],"id":15,"left_children":[1,3,-1,-1,-1],"loss_changes":[8.378038E0,5.9349937E0,0E0,0E0,0E0],"parents":[2147483647,0,0,1,1],"right_children":[2,4,-1,-1,-1],"split_conditions":[1E0,1E0,1.6421646E0,-5.34124E-2,8.145964E-1],"split_indices":[1756,1149,0,0,0],"split_type":[0,0,0,0,0],"sum_hessian":[1.6609612E2,1.6397997E2,2.1161447E0,1.5772313E2,6.256838E0],"tree_param":{"num_deleted":"0","num_feature":"3514","num_nodes":"5","size_leaf_vector":"1"}},{"base_weights":[1.7786995E-2,-1.818524E-2,8.8255113E-1,-3.8563956E-2,4.3218294E-1],"categories":[],"categories_nodes":[],"categories_segments":[],"categories_sizes":[],"default_left":[0,0,0,0,0],"id":16,"left_children":[1,3,-1,-1,-1],"loss_changes":[5.206339E0,2.6100101E0,0E0,0E0,0E0],"parents":[2147483647,0,0,1,1],"right_children":[2,4,-1,-1,-1],"split_conditions":[1E0,1E0,8.8255113E-1,-3.8563956E-2,4.3218294E-1],"split_indices":[1242,1146,0,0,0],"split_type":[0,0,0,0,0],"sum_hessian":[1.6585014E2,1.6016653E2,5.683595E0,1.5913547E2,1.0310721E0],"tree_param":{"num_deleted":"0","num_feature":"3514","num_nodes":"5","size_leaf_vector":"1"}},{"base_weights":[3.173744E-2,1.3700224E-2,1.4608121E0,-4.4477456E-3,7.3725617E-1],"categories":[],"categories_nodes":[],"categories_segments":[],"categories_sizes":[],"default_left":[0,0,0,0,0],"id":17,"left_children":[1,3,-1,-1,-1],"loss_changes":[4.2195773E0,3.0833535E0,0E0,0E0,0E0],"parents":[2147483647,0,0,1,1],"right_children":[2,4,-1,-1,-1],"split_conditions":[1E0,1E0,1.4608121E0,-4.4477456E-3,7.3725617E-1],"split_indices":[674,2487,0,0,0],"split_type":[0,0,0,0,0],"sum_hessian":[1.6347488E2,1.6243428E2,1.0405945E0,1.611272E2,1.3070881E0],"tree_param":{"num_deleted":"0","num_feature":"3514","num_nodes":"5","size_leaf_vector":"1"}},{"base_weights":[1.5941273E-2,-5.7138326E-3,8.4307915E-1,-2.7656224E-2,4.1868266E-1],"categories":[],"categories_nodes":[],"categories_segments":[],"categories_sizes":[],"default_left":[0,0,0,0,0],"id":18,"left_children":[1,3,-1,-1,-1],"loss_changes":[2.9818997E0,2.2487657E0,0E0,0E0,0E0],"parents":[2147483647,0,0,1,1],"right_children":[2,4,-1,-1,-1],"split_conditions":[1E0,1E0,8.4307915E-1,-2.7656224E-2,4.1868266E-1],"split_indices":[2746,331,0,0,0],"split_type":[0,0,0,0,0],"sum_hessian":[1.6520827E2,1.6196109E2,3.247174E0,1.5850018E2,3.4609082E0],"tree_param":{"num_deleted":"0","num_feature":"3514","num_nodes":"5","size_leaf_vector":"1"}},{"base_weights":[2.3946524E-2,5.596045E-3,7.5474876E-1,-1.1195913E-1,1.17207326E-1],"categories":[],"categories_nodes":[],"categories_segments":[],"categories_sizes":[],"default_left":[0,0,0,0,0],"id":19,"left_children":[1,3,-1,-1,-1],"loss_changes":[2.19079E0,2.1212702E0,0E0,0E0,0E0],"parents":[2147483647,0,0,1,1],"right_children":[2,4,-1,-1,-1],"split_conditions":[1E0,1E0,7.5474876E-1,-1.1195913E-1,1.17207326E-1],"split_indices":[1149,634,0,0,0],"split_type":[0,0,0,0,0],"sum_hessian":[1.6267787E2,1.5967606E2,3.0018163E0,7.7765755E1,8.19103E1],"tree_param":{"num_deleted":"0","num_feature":"3514","num_nodes":"5","size_leaf_vector":"1"}},{"base_weights":[1.0169201E-2,-1.4347677E-2,6.7775196E-1,-3.417716E-2,3.3170214E-1,3.3170214E-1,1.2654997E0],"categories":[],"categories_nodes":[],"categories_segments":[],"categories_sizes":[],"default_left":[0,0,0,0,0,0,0],"id":20,"left_children":[1,3,5,-1,-1,-1,-1],"loss_changes":[2.5127597E0,1.6117258E0,2.7796166E0,0E0,0E0,0E0,0E0],"parents":[2147483647,0,0,1,1,2,2],"right_children":[2,4,6,-1,-1,-1,-1],"split_conditions":[1E0,1E0,1E0,-3.417716E-2,3.3170214E-1,3.3170214E-1,1.2654997E0],"split_indices":[3494,1242,1551,0,0,0,0],"split_type":[0,0,0,0,0,0,0],"sum_hessian":[1.5193146E2,1.4749329E2,4.4381614E0,1.4469534E2,2.7979527E0,1.3774332E0,3.060728E0],"tree_param":{"num_deleted":"0","num_feature":"3514","num_nodes":"7","size_leaf_vector":"1"}},{"base_weights":[1.7629836E-2,1.0195846E-3,8.5687214E-1,-1.705476E-2,4.2894587E-1],"categories":[],"categories_nodes":[],"categories_segments":[],"categories_sizes":[],"default_left":[0,0,0,0,0],"id":21,"left_children":[1,3,-1,-1,-1],"loss_changes":[2.109424E0,1.6505035E0,0E0,0E0,0E0],"parents":[2147483647,0,0,1,1],"right_children":[2,4,-1,-1,-1],"split_conditions":[1E0,1E0,8.5687214E-1,-1.705476E-2,4.2894587E-1],"split_indices":[535,331,0,0,0],"split_type":[0,0,0,0,0],"sum_hessian":[1.5038406E2,1.4844722E2,1.9368467E0,1.4580229E2,2.644923E0],"tree_param":{"num_deleted":"0","num_feature":"3514","num_nodes":"5","size_leaf_vector":"1"}},{"base_weights":[1.2728545E-2,2.29848E-4,9.394237E-1,-1.3772466E-2,4.6982676E-1],"categories":[],"categories_nodes":[],"categories_segments":[],"categories_sizes":[],"default_left":[0,0,0,0,0],"id":22,"left_children":[1,3,-1,-1,-1],"loss_changes":[1.7656058E0,1.3175457E0,0E0,0E0,0E0],"parents":[2147483647,0,0,1,1],"right_children":[2,4,-1,-1,-1],"split_conditions":[1E0,1E0,9.394237E-1,-1.3772466E-2,4.6982676E-1],"split_indices":[736,1242,0,0,0],"split_type":[0,0,0,0,0],"sum_hessian":[1.5145624E2,1.5042761E2,1.0286276E0,1.4836314E2,2.064471E0],"tree_param":{"num_deleted":"0","num_feature":"3514","num_nodes":"5","size_leaf_vector":"1"}},{"base_weights":[1.5423156E-2,1.6718894E-3,6.825851E-1,-1.01873E-2,3.4212852E-1],"categories":[],"categories_nodes":[],"categories_segments":[],"categories_sizes":[],"default_left":[0,0,0,0,0],"id":23,"left_children":[1,3,-1,-1,-1],"loss_changes":[1.3900536E0,8.944868E-1,0E0,0E0,0E0],"parents":[2147483647,0,0,1,1],"right_children":[2,4,-1,-1,-1],"split_conditions":[1E0,1E0,6.825851E-1,-1.01873E-2,3.4212852E-1],"split_indices":[463,331,0,0,0],"split_type":[0,0,0,0,0],"sum_hessian":[1.5064008E2,1.4858011E2,2.0599658E0,1.4682892E2,1.7511941E0],"tree_param":{"num_deleted":"0","num_feature":"3514","num_nodes":"5","size_leaf_vector":"1"}},{"base_weights":[1.5314745E-2,3.2308048E-3,5.922762E-1,-7.487708E-2,7.025493E-2,2.977535E-1,1.3355246E0],"categories":[],"categories_nodes":[],"categories_segments":[],"categories_sizes":[],"default_left":[0,0,0,0,0,0,0],"id":24,"left_children":[1,3,5,-1,-1,-1,-1],"loss_changes":[1.045698E0,7.810179E-1,1.8248696E0,0E0,0E0,0E0,0E0],"parents":[2147483647,0,0,1,1,2,2],"right_children":[2,4,6,-1,-1,-1,-1],"split_conditions":[1E0,1E0,1E0,-7.487708E-2,7.025493E-2,2.977535E-1,1.3355246E0],"split_indices":[2487,634,2920,0,0,0,0],"split_type":[0,0,0,0,0,0,0],"sum_hessian":[1.4926053E2,1.471835E2,2.0770266E0,6.791743E1,7.926607E1,1.0524185E0,1.024608E0],"tree_param":{"num_deleted":"0","num_feature":"3514","num_nodes":"7","size_leaf_vector":"1"}},{"base_weights":[-5.16957E-3,-2.818185E-2,1.6523589E0,-7.839966E-2,2.0343706E-1],"categories":[],"categories_nodes":[],"categories_segments":[],"categories_sizes":[],"default_left":[0,0,0,0,0],"id":25,"left_children":[1,3,-1,-1,-1],"loss_changes":[5.640123E0,1.7097154E0,0E0,0E0,0E0],"parents":[2147483647,0,0,1,1],"right_children":[2,4,-1,-1,-1],"split_conditions":[1E0,1E0,1.6523589E0,-7.839966E-2,2.0343706E-1],"split_indices":[1872,1530,0,0,0],"split_type":[0,0,0,0,0],"sum_hessian":[1.4564503E2,1.446202E2,1.0248355E0,1.1939534E2,2.5224852E1],"tree_param":{"num_deleted":"0","num_feature":"3514","num_nodes":"5","size_leaf_vector":"1"}},{"base_weights":[9.512908E-3,-2.387197E-3,6.394745E-1,-8.8815555E-2,7.067038E-2],"categories":[],"categories_nodes":[],"categories_segments":[],"categories_sizes":[],"default_left":[0,0,0,0,0],"id":26,"left_children":[1,3,-1,-1,-1],"loss_changes":[1.1142995E0,9.324573E-1,0E0,0E0,0E0],"parents":[2147483647,0,0,1,1],"right_children":[2,4,-1,-1,-1],"split_conditions":[1E0,1E0,6.394745E-1,-8.8815555E-2,7.067038E-2],"split_indices":[1149,634,0,0,0],"split_type":[0,0,0,0,0],"sum_hessian":[1.4743686E2,1.4568112E2,1.7557356E0,6.663504E1,7.904608E1],"tree_param":{"num_deleted":"0","num_feature":"3514","num_nodes":"5","size_leaf_vector":"1"}},{"base_weights":[6.449938E-3,-5.4986663E-3,7.5041807E-1,-5.546104E-2,1.9256642E-1],"categories":[],"categories_nodes":[],"categories_segments":[],"categories_sizes":[],"default_left":[0,0,0,0,0],"id":27,"left_children":[1,3,-1,-1,-1],"loss_changes":[1.2641186E0,1.4009762E0,0E0,0E0,0E0],"parents":[2147483647,0,0,1,1],"right_children":[2,4,-1,-1,-1],"split_conditions":[1E0,1E0,7.5041807E-1,-5.546104E-2,1.9256642E-1],"split_indices":[2885,671,0,0,0],"split_type":[0,0,0,0,0],"sum_hessian":[1.4074129E2,1.3949355E2,1.2477465E0,1.1196907E2,2.7524471E1],"tree_param":{"num_deleted":"0","num_feature":"3514","num_nodes":"5","size_leaf_vector":"1"}},{"base_weights":[6.2719285E-3,-5.5222157E-3,6.2787074E-1,-8.244728E-2,5.587318E-2],"categories":[],"categories_nodes":[],"categories_segments":[],"categories_sizes":[],"default_left":[0,0,0,0,0],"id":28,"left_children":[1,3,-1,-1,-1],"loss_changes":[1.0533348E0,6.730291E-1,0E0,0E0,0E0],"parents":[2147483647,0,0,1,1],"right_children":[2,4,-1,-1,-1],"split_conditions":[1E0,1E0,6.2787074E-1,-8.244728E-2,5.587318E-2],"split_indices":[331,634,0,0,0],"split_type":[0,0,0,0,0],"sum_hessian":[1.4220491E2,1.4052963E2,1.675277E0,6.222377E1,7.830586E1],"tree_param":{"num_deleted":"0","num_feature":"3514","num_nodes":"5","size_leaf_vector":"1"}},{"base_weights":[6.192161E-3,-4.836695E-3,6.051713E-1,-1.5003087E-2,3.0016732E-1],"categories":[],"categories_nodes":[],"categories_segments":[],"categories_sizes":[],"default_left":[0,0,0,0,0],"id":29,"left_children":[1,3,-1,-1,-1],"loss_changes":[9.1216874E-1,6.5325296E-1,0E0,0E0,0E0],"parents":[2147483647,0,0,1,1],"right_children":[2,4,-1,-1,-1],"split_conditions":[1E0,1E0,6.051713E-1,-1.5003087E-2,3.0016732E-1],"split_indices":[1242,2746,0,0,0],"split_type":[0,0,0,0,0],"sum_hessian":[1.3663762E2,1.3514122E2,1.4963969E0,1.3398341E2,1.1578131E0],"tree_param":{"num_deleted":"0","num_feature":"3514","num_nodes":"5","size_leaf_vector":"1"}},{"base_weights":[1.3668876E-2,5.052064E-3,5.7621706E-1,-3.8715834E-3,2.9063457E-1],"categories":[],"categories_nodes":[],"categories_segments":[],"categories_sizes":[],"default_left":[0,0,0,0,0],"id":30,"left_children":[1,3,-1,-1,-1],"loss_changes":[6.612845E-1,4.3789133E-1,0E0,0E0,0E0],"parents":[2147483647,0,0,1,1],"right_children":[2,4,-1,-1,-1],"split_conditions":[1E0,1E0,5.7621706E-1,-3.8715834E-3,2.9063457E-1],"split_indices":[1699,1756,0,0,0],"split_type":[0,0,0,0,0],"sum_hessian":[1.3602179E2,1.3496347E2,1.0583175E0,1.3287137E2,2.0921009E0],"tree_param":{"num_deleted":"0","num_feature":"3514","num_nodes":"5","size_leaf_vector":"1"}},{"base_weights":[7.3745167E-3,-6.6911894E-6,5.049226E-1,-6.442993E-3,2.5245798E-1],"categories":[],"categories_nodes":[],"categories_segments":[],"categories_sizes":[],"default_left":[0,0,0,0,0],"id":31,"left_children":[1,3,-1,-1,-1],"loss_changes":[5.0620186E-1,3.123415E-1,0E0,0E0,0E0],"parents":[2147483647,0,0,1,1],"right_children":[2,4,-1,-1,-1],"split_conditions":[1E0,1E0,5.049226E-1,-6.442993E-3,2.5245798E-1],"split_indices":[1149,1146,0,0,0],"split_type":[0,0,0,0,0],"sum_hessian":[1.3683463E2,1.358197E2,1.0149212E0,1.3471216E2,1.1075488E0],"tree_param":{"num_deleted":"0","num_feature":"3514","num_nodes":"5","size_leaf_vector":"1"}},{"base_weights":[8.761827E-3,2.4104523E-3,3.9346883E-1,-4.843124E-3,1.9793963E-1],"categories":[],"categories_nodes":[],"categories_segments":[],"categories_sizes":[],"default_left":[0,0,0,0,0],"id":32,"left_children":[1,3,-1,-1,-1],"loss_changes":[3.3513248E-1,2.2358245E-1,0E0,0E0,0E0],"parents":[2147483647,0,0,1,1],"right_children":[2,4,-1,-1,-1],"split_conditions":[1E0,1E0,3.9346883E-1,-4.843124E-3,1.9793963E-1],"split_indices":[2885,3494,0,0,0],"split_type":[0,0,0,0,0],"sum_hessian":[1.3654541E2,1.3531763E2,1.2277797E0,1.3212984E2,3.1877851E0],"tree_param":{"num_deleted":"0","num_feature":"3514","num_nodes":"5","size_leaf_vector":"1"}},{"base_weights":[5.2563553E-3,8.949534E-4,2.8830868E-1,-1.5836872E-2,7.7325314E-2],"categories":[],"categories_nodes":[],"categories_segments":[],"categories_sizes":[],"default_left":[0,0,0,0,0],"id":33,"left_children":[1,3,-1,-1,-1],"loss_changes":[1.698281E-1,1.760254E-1,0E0,0E0,0E0],"parents":[2147483647,0,0,1,1],"right_children":[2,4,-1,-1,-1],"split_conditions":[1E0,1E0,2.8830868E-1,-1.5836872E-2,7.7325314E-2],"split_indices":[1146,1530,0,0,0],"split_type":[0,0,0,0,0],"sum_hessian":[1.3677681E2,1.3568921E2,1.0876006E0,1.11969986E2,2.3719223E1],"tree_param":{"num_deleted":"0","num_feature":"3514","num_nodes":"5","size_leaf_vector":"1"}},{"base_weights":[2.5787214E-3,-4.9040187E-2,4.2303655E-2,-2.0153022E-1,-3.368266E-3,-3.368266E-3,5.6195205E-1],"categories":[],"categories_nodes":[],"categories_segments":[],"categories_sizes":[],"default_left":[0,0,0,0,0,0,0],"id":34,"left_children":[1,3,5,-1,-1,-1,-1],"loss_changes":[2.851364E-1,2.1160107E0,1.9493284E0,0E0,0E0,0E0,0E0],"parents":[2147483647,0,0,1,1,2,2],"right_children":[2,4,6,-1,-1,-1,-1],"split_conditions":[1E0,1E0,1E0,-2.0153022E-1,-3.368266E-3,-3.368266E-3,5.6195205E-1],"split_indices":[634,1556,1550,0,0,0,0],"split_type":[0,0,0,0,0,0,0],"sum_hessian":[1.3704137E2,5.9496555E1,7.7544815E1,5.6100033E1,3.396522E0,7.1932594E1,5.612216E0],"tree_param":{"num_deleted":"0","num_feature":"3514","num_nodes":"7","size_leaf_vector":"1"}},{"base_weights":[6.8670586E-2,3.2899823E-2,2.0654616E-1,2.225411E-2,1.1972299E-1,1.1972299E-1,7.8538406E-1],"categories":[],"categories_nodes":[],"categories_segments":[],"categories_sizes":[],"default_left":[0,0,0,0,0,0,0],"id":35,"left_children":[1,3,5,-1,-1,-1,-1],"loss_changes":[6.413004E-1,1.8180883E-1,6.2205243E0,0E0,0E0,0E0,0E0],"parents":[2147483647,0,0,1,1,2,2],"right_children":[2,4,6,-1,-1,-1,-1],"split_conditions":[1E0,1E0,1E0,2.225411E-2,1.1972299E-1,1.1972299E-1,7.8538406E-1],"split_indices":[671,331,1570,0,0,0,0],"split_type":[0,0,0,0,0,0,0],"sum_hessian":[1.3040855E2,1.0452814E2,2.588041E1,1.0338128E2,1.1468617E0,1.2352263E1,1.3528146E1],"tree_param":{"num_deleted":"0","num_feature":"3514","num_nodes":"7","size_leaf_vector":"1"}},{"base_weights":[-3.581213E-2,-4.407691E-2,5.052313E-1,-1.1000444E-1,-1.1475537E-3],"categories":[],"categories_nodes":[],"categories_segments":[],"categories_sizes":[],"default_left":[0,0,0,0,0],"id":36,"left_children":[1,3,-1,-1,-1],"loss_changes":[5.981204E-1,3.614684E-1,0E0,0E0,0E0],"parents":[2147483647,0,0,1,1],"right_children":[2,4,-1,-1,-1],"split_conditions":[1E0,1E0,5.052313E-1,-1.1000444E-1,-1.1475537E-3],"split_indices":[331,635,0,0,0],"split_type":[0,0,0,0,0],"sum_hessian":[1.277796E2,1.2676177E2,1.0178319E0,4.9374237E1,7.7387535E1],"tree_param":{"num_deleted":"0","num_feature":"3514","num_nodes":"5","size_leaf_vector":"1"}},{"base_weights":[2.9644624E-3,-5.251501E-3,5.0924945E-1,-1.0251934E-2,2.5199896E-1],"categories":[],"categories_nodes":[],"categories_segments":[],"categories_sizes":[],"default_left":[0,0,0,0,0],"id":37,"left_children":[1,3,-1,-1,-1],"loss_changes":[5.2723575E-1,1.8150727E-1,0E0,0E0,0E0],"parents":[2147483647,0,0,1,1],"right_children":[2,4,-1,-1,-1],"split_conditions":[1E0,1E0,5.0924945E-1,-1.0251934E-2,2.5199896E-1],"split_indices":[1242,2885,0,0,0],"split_type":[0,0,0,0,0],"sum_hessian":[1.25108055E2,1.2408405E2,1.0240016E0,1.2292195E2,1.1620996E0],"tree_param":{"num_deleted":"0","num_feature":"3514","num_nodes":"5","size_leaf_vector":"1"}},{"base_weights":[7.4461964E-3,6.856971E-4,2.1102475E-1,-3.986592E-3,1.0585522E-1,1.0585522E-1,1.207865E0],"categories":[],"categories_nodes":[],"categories_segments":[],"categories_sizes":[],"default_left":[0,0,0,0,0,0,0],"id":38,"left_children":[1,3,5,-1,-1,-1,-1],"loss_changes":[1.731543E-1,9.6246585E-2,2.7309961E0,0E0,0E0,0E0,0E0],"parents":[2147483647,0,0,1,1,2,2],"right_children":[2,4,6,-1,-1,-1,-1],"split_conditions":[1E0,1E0,1E0,-3.986592E-3,1.0585522E-1,1.0585522E-1,1.207865E0],"split_indices":[3494,1699,1551,0,0,0,0],"split_type":[0,0,0,0,0,0,0],"sum_hessian":[1.2491725E2,1.2187341E2,3.0438418E0,1.2054844E2,1.3249745E0,1.7489879E0,1.2948539E0],"tree_param":{"num_deleted":"0","num_feature":"3514","num_nodes":"7","size_leaf_vector":"1"}},{"base_weights":[-8.563807E-4,-4.787215E-3,2.3353216E-1,-9.58571E-3,1.1437247E-1],"categories":[],"categories_nodes":[],"categories_segments":[],"categories_sizes":[],"default_left":[0,0,0,0,0],"id":39,"left_children":[1,3,-1,-1,-1],"loss_changes":[1.1697973E-1,9.669355E-2,0E0,0E0,0E0],"parents":[2147483647,0,0,1,1],"right_children":[2,4,-1,-1,-1],"split_conditions":[1E0,1E0,2.3353216E-1,-9.58571E-3,1.1437247E-1],"split_indices":[674,535,0,0,0],"split_type":[0,0,0,0,0],"sum_hessian":[1.2475319E2,1.2365893E2,1.0942577E0,1.2133865E2,2.3202744E0],"tree_param":{"num_deleted":"0","num_feature":"3514","num_nodes":"5","size_leaf_vector":"1"}},{"base_weights":[4.162915E-3,6.9812546E-4,1.8354474E-1,-7.923158E-3,9.212143E-2],"categories":[],"categories_nodes":[],"categories_segments":[],"categories_sizes":[],"default_left":[0,0,0,0,0],"id":40,"left_children":[1,3,-1,-1,-1],"loss_changes":[7.831363E-2,1.7649531E-1,0E0,0E0,0E0],"parents":[2147483647,0,0,1,1],"right_children":[2,4,-1,-1,-1],"split_conditions":[1E0,1E0,1.8354474E-1,-7.923158E-3,9.212143E-2],"split_indices":[1699,1756,0,0,0],"split_type":[0,0,0,0,0],"sum_hessian":[1.252095E2,1.23821754E2,1.3877459E0,1.2171748E2,2.1042676E0],"tree_param":{"num_deleted":"0","num_feature":"3514","num_nodes":"5","size_leaf_vector":"1"}},{"base_weights":[8.098788E-3,-2.890217E-2,3.0182898E-2,-2.1258315E-1,6.4036436E-4,1.2413351E-2,6.765544E-1],"categories":[],"categories_nodes":[],"categories_segments":[],"categories_sizes":[],"default_left":[0,0,0,0,0,0,0],"id":41,"left_children":[1,3,5,-1,-1,-1,-1],"loss_changes":[1.04366586E-1,2.0095103E0,9.0821725E-1,0E0,0E0,0E0,0E0],"parents":[2147483647,0,0,1,1,2,2],"right_children":[2,4,6,-1,-1,-1,-1],"split_conditions":[1E0,1E0,1E0,-2.1258315E-1,6.4036436E-4,1.2413351E-2,6.765544E-1],"split_indices":[635,1556,1551,0,0,0,0],"split_type":[0,0,0,0,0,0,0],"sum_hessian":[1.2565528E2,4.6850536E1,7.880474E1,4.4118355E1,2.73218E0,7.76882E1,1.1165397E0],"tree_param":{"num_deleted":"0","num_feature":"3514","num_nodes":"7","size_leaf_vector":"1"}},{"base_weights":[6.9067426E-2,6.432597E-2,2.2939557E-1,5.590067E-2,1.3575627E-1],"categories":[],"categories_nodes":[],"categories_segments":[],"categories_sizes":[],"default_left":[0,0,0,0,0],"id":42,"left_children":[1,3,-1,-1,-1],"loss_changes":[7.816887E-2,6.470066E-2,0E0,0E0,0E0],"parents":[2147483647,0,0,1,1],"right_children":[2,4,-1,-1,-1],"split_conditions":[1E0,1E0,2.2939557E-1,5.590067E-2,1.3575627E-1],"split_indices":[535,1550,0,0,0],"split_type":[0,0,0,0,0],"sum_hessian":[1.2123951E2,1.19118E2,2.1215098E0,1.0814476E2,1.0973234E1],"tree_param":{"num_deleted":"0","num_feature":"3514","num_nodes":"5","size_leaf_vector":"1"}},{"base_weights":[3.4896182E-3,-1.0474462E-4,2.0927334E-1,-3.0746732E-3,1.045843E-1],"categories":[],"categories_nodes":[],"categories_segments":[],"categories_sizes":[],"default_left":[0,0,0,0,0],"id":43,"left_children":[1,3,-1,-1,-1],"loss_changes":[8.9520656E-2,4.8504114E-2,0E0,0E0,0E0],"parents":[2147483647,0,0,1,1],"right_children":[2,4,-1,-1,-1],"split_conditions":[1E0,1E0,2.0927334E-1,-3.0746732E-3,1.045843E-1],"split_indices":[1146,1699,0,0,0],"split_type":[0,0,0,0,0],"sum_hessian":[1.19999596E2,1.1892191E2,1.0776826E0,1.1752527E2,1.3966472E0],"tree_param":{"num_deleted":"0","num_feature":"3514","num_nodes":"5","size_leaf_vector":"1"}},{"base_weights":[3.3702524E-3,8.3767105E-4,1.4916402E-1,-1.5181616E-3,7.5000845E-2],"categories":[],"categories_nodes":[],"categories_segments":[],"categories_sizes":[],"default_left":[0,0,0,0,0],"id":44,"left_children":[1,3,-1,-1,-1],"loss_changes":[4.461118E-2,3.1097962E-2,0E0,0E0,0E0],"parents":[2147483647,0,0,1,1],"right_children":[2,4,-1,-1,-1],"split_conditions":[1E0,1E0,1.4916402E-1,-1.5181616E-3,7.5000845E-2],"split_indices":[2885,674,0,0,0],"split_type":[0,0,0,0,0],"sum_hessian":[1.2015908E2,1.19096016E2,1.0630695E0,1.18086845E2,1.0091676E0],"tree_param":{"num_deleted":"0","num_feature":"3514","num_nodes":"5","size_leaf_vector":"1"}},{"base_weights":[2.9345464E-3,1.2470857E-3,1.0241585E-1,-1.0335328E-3,5.183147E-2],"categories":[],"categories_nodes":[],"categories_segments":[],"categories_sizes":[],"default_left":[0,0,0,0,0],"id":45,"left_children":[1,3,-1,-1,-1],"loss_changes":[2.021332E-2,1.6269254E-2,0E0,0E0,0E0],"parents":[2147483647,0,0,1,1],"right_children":[2,4,-1,-1,-1],"split_conditions":[1E0,1E0,1.0241585E-1,-1.0335328E-3,5.183147E-2],"split_indices":[674,1756,0,0,0],"split_type":[0,0,0,0,0],"sum_hessian":[1.2017083E2,1.1916207E2,1.0087614E0,1.1580075E2,3.3613203E0],"tree_param":{"num_deleted":"0","num_feature":"3514","num_nodes":"5","size_leaf_vector":"1"}},{"base_weights":[1.6074507E-3,3.5867785E-4,7.465385E-2,-7.5231295E-4,3.7506264E-2],"categories":[],"categories_nodes":[],"categories_segments":[],"categories_sizes":[],"default_left":[0,0,0,0,0],"id":46,"left_children":[1,3,-1,-1,-1],"loss_changes":[1.10381525E-2,6.464567E-3,0E0,0E0,0E0],"parents":[2147483647,0,0,1,1],"right_children":[2,4,-1,-1,-1],"split_conditions":[1E0,1E0,7.465385E-2,-7.5231295E-4,3.7506264E-2],"split_indices":[2885,1699,0,0,0],"split_type":[0,0,0,0,0],"sum_hessian":[1.2030155E2,1.1926751E2,1.0340407E0,1.1776163E2,1.5058831E0],"tree_param":{"num_deleted":"0","num_feature":"3514","num_nodes":"5","size_leaf_vector":"1"}},{"base_weights":[1.2379175E-3,1.6218062E-5,4.2615384E-2,-5.4940474E-3,2.1315802E-2],"categories":[],"categories_nodes":[],"categories_segments":[],"categories_sizes":[],"default_left":[0,0,0,0,0],"id":47,"left_children":[1,3,-1,-1,-1],"loss_changes":[6.1328416E-3,1.7847247E-2,0E0,0E0,0E0],"parents":[2147483647,0,0,1,1],"right_children":[2,4,-1,-1,-1],"split_conditions":[1E0,1E0,4.2615384E-2,-5.4940474E-3,2.1315802E-2],"split_indices":[535,1530,0,0,0],"split_type":[0,0,0,0,0],"sum_hessian":[1.2033399E2,1.17854645E2,2.479351E0,9.948119E1,1.8373455E1],"tree_param":{"num_deleted":"0","num_feature":"3514","num_nodes":"5","size_leaf_vector":"1"}},{"base_weights":[1.6363795E-3,6.761031E-4,5.8309007E-2,9.366784E-5,2.9492555E-2],"categories":[],"categories_nodes":[],"categories_segments":[],"categories_sizes":[],"default_left":[0,0,0,0,0],"id":48,"left_children":[1,3,-1,-1,-1],"loss_changes":[6.5719667E-3,2.3372907E-3,0E0,0E0,0E0],"parents":[2147483647,0,0,1,1],"right_children":[2,4,-1,-1,-1],"split_conditions":[1E0,1E0,5.8309007E-2,9.366784E-5,2.9492555E-2],"split_indices":[1146,2885,0,0,0],"split_type":[0,0,0,0,0],"sum_hessian":[1.20485146E2,1.19472694E2,1.0124478E0,1.1845716E2,1.0155407E0],"tree_param":{"num_deleted":"0","num_feature":"3514","num_nodes":"5","size_leaf_vector":"1"}},{"base_weights":[8.122321E-4,1.8784532E-4,3.0039838E-2,-8.636546E-3,1.5113842E-2],"categories":[],"categories_nodes":[],"categories_segments":[],"categories_sizes":[],"default_left":[0,0,0,0,0],"id":49,"left_children":[1,3,-1,-1,-1],"loss_changes":[2.2113035E-3,3.9554052E-2,0E0,0E0,0E0],"parents":[2147483647,0,0,1,1],"right_children":[2,4,-1,-1,-1],"split_conditions":[1E0,1E0,3.0039838E-2,-8.636546E-3,1.5113842E-2],"split_indices":[1699,1756,0,0,0],"split_type":[0,0,0,0,0],"sum_hessian":[1.20480995E2,1.1894638E2,1.534614E0,1.1689936E2,2.0470178E0],"tree_param":{"num_deleted":"0","num_feature":"3514","num_nodes":"5","size_leaf_vector":"1"}},{"base_weights":[8.475104E-3,7.991881E-3,3.3213697E-2,7.650691E-3,2.0602789E-2],"categories":[],"categories_nodes":[],"categories_segments":[],"categories_sizes":[],"default_left":[0,0,0,0,0],"id":50,"left_children":[1,3,-1,-1,-1],"loss_changes":[1.1902424E-3,4.5911642E-4,0E0,0E0,0E0],"parents":[2147483647,0,0,1,1],"right_children":[2,4,-1,-1,-1],"split_conditions":[1E0,1E0,3.3213697E-2,7.650691E-3,2.0602789E-2],"split_indices":[1146,2885,0,0,0],"split_type":[0,0,0,0,0],"sum_hessian":[1.2077083E2,1.1975469E2,1.016136E0,1.1874363E2,1.0110633E0],"tree_param":{"num_deleted":"0","num_feature":"3514","num_nodes":"5","size_leaf_vector":"1"}},{"base_weights":[5.716953E-4,3.0140555E-4,1.6424214E-2,6.846439E-5,8.36281E-3],"categories":[],"categories_nodes":[],"categories_segments":[],"categories_sizes":[],"default_left":[0,0,0,0,0],"id":51,"left_children":[1,3,-1,-1,-1],"loss_changes":[5.1591836E-4,3.2006143E-4,0E0,0E0,0E0],"parents":[2147483647,0,0,1,1],"right_children":[2,4,-1,-1,-1],"split_conditions":[1E0,1E0,1.6424214E-2,6.846439E-5,8.36281E-3],"split_indices":[1146,2885,0,0,0],"split_type":[0,0,0,0,0],"sum_hessian":[1.2056273E2,1.19543495E2,1.0192356E0,1.185367E2,1.0067995E0],"tree_param":{"num_deleted":"0","num_feature":"3514","num_nodes":"5","size_leaf_vector":"1"}},{"base_weights":[2.9855134E-4,4.3416072E-5,8.756797E-3,-1.6031694E-3,4.4001066E-3],"categories":[],"categories_nodes":[],"categories_segments":[],"categories_sizes":[],"default_left":[0,0,0,0,0],"id":52,"left_children":[1,3,-1,-1,-1],"loss_changes":[2.6194795E-4,1.3506851E-3,0E0,0E0,0E0],"parents":[2147483647,0,0,1,1],"right_children":[2,4,-1,-1,-1],"split_conditions":[1E0,1E0,8.756797E-3,-1.6031694E-3,4.4001066E-3],"split_indices":[535,1530,0,0,0],"split_type":[0,0,0,0,0],"sum_hessian":[1.2056095E2,1.1800653E2,2.5544262E0,9.969222E1,1.8314302E1],"tree_param":{"num_deleted":"0","num_feature":"3514","num_nodes":"5","size_leaf_vector":"1"}},{"base_weights":[7.666982E-4,6.142538E-4,9.556596E-3,4.6859065E-4,5.085425E-3],"categories":[],"categories_nodes":[],"categories_segments":[],"categories_sizes":[],"default_left":[0,0,0,0,0],"id":53,"left_children":[1,3,-1,-1,-1],"loss_changes":[1.5707669E-4,1.1202962E-4,0E0,0E0,0E0],"parents":[2147483647,0,0,1,1],"right_children":[2,4,-1,-1,-1],"split_conditions":[1E0,1E0,9.556596E-3,4.6859065E-4,5.085425E-3],"split_indices":[2885,1146,0,0,0],"split_type":[0,0,0,0,0],"sum_hessian":[1.2060481E2,1.1960044E2,1.0043648E0,1.1857966E2,1.020784E0],"tree_param":{"num_deleted":"0","num_feature":"3514","num_nodes":"5","size_leaf_vector":"1"}},{"base_weights":[1.8833809E-4,4.3647142E-5,6.89307E-3,-8.393765E-3,3.4683587E-3],"categories":[],"categories_nodes":[],"categories_segments":[],"categories_sizes":[],"default_left":[0,0,0,0,0],"id":54,"left_children":[1,3,-1,-1,-1],"loss_changes":[1.17656054E-4,1.5177799E-2,0E0,0E0,0E0],"parents":[2147483647,0,0,1,1],"right_children":[2,4,-1,-1,-1],"split_conditions":[1E0,1E0,6.89307E-3,-8.393765E-3,3.4683587E-3],"split_indices":[1699,1756,0,0,0],"split_type":[0,0,0,0,0],"sum_hessian":[1.20590775E2,1.19028595E2,1.5621773E0,1.169561E2,2.072494E0],"tree_param":{"num_deleted":"0","num_feature":"3514","num_nodes":"5","size_leaf_vector":"1"}},{"base_weights":[8.1053255E-3],"categories":[],"categories_nodes":[],"categories_segments":[],"categories_sizes":[],"default_left":[0],"id":55,"left_children":[-1],"loss_changes":[0E0],"parents":[2147483647],"right_children":[-1],"split_conditions":[8.1053255E-3],"split_indices":[0],"split_type":[0],"sum_hessian":[1.20843254E2],"tree_param":{"num_deleted":"0","num_feature":"3514","num_nodes":"1","size_leaf_vector":"1"}},{"base_weights":[7.463091E-5,-3.3743334E-5,6.5039126E-3,-1.1567306E-4,3.2350847E-3],"categories":[],"categories_nodes":[],"categories_segments":[],"categories_sizes":[],"default_left":[0,0,0,0,0],"id":56,"left_children":[1,3,-1,-1,-1],"loss_changes":[8.496298E-5,4.3687924E-5,0E0,0E0,0E0],"parents":[2147483647,0,0,1,1],"right_children":[2,4,-1,-1,-1],"split_conditions":[1E0,1E0,6.5039126E-3,-1.1567306E-4,3.2350847E-3],"split_indices":[1146,2885,0,0,0],"split_type":[0,0,0,0,0],"sum_hessian":[1.20623604E2,1.19602295E2,1.021307E0,1.1859996E2,1.0023403E0],"tree_param":{"num_deleted":"0","num_feature":"3514","num_nodes":"5","size_leaf_vector":"1"}},{"base_weights":[1.0582366E-4,5.2617746E-5,3.2592716E-3,-1.312569E-6,1.6559446E-3],"categories":[],"categories_nodes":[],"categories_segments":[],"categories_sizes":[],"default_left":[0,0,0,0,0],"id":57,"left_children":[1,3,-1,-1,-1],"loss_changes":[2.023529E-5,1.5662054E-5,0E0,0E0,0E0],"parents":[2147483647,0,0,1,1],"right_children":[2,4,-1,-1,-1],"split_conditions":[1E0,1E0,3.2592716E-3,-1.312569E-6,1.6559446E-3],"split_indices":[2885,1146,0,0,0],"split_type":[0,0,0,0,0],"sum_hessian":[1.2062673E2,1.1962507E2,1.001664E0,1.1860303E2,1.0220374E0],"tree_param":{"num_deleted":"0","num_feature":"3514","num_nodes":"5","size_leaf_vector":"1"}},{"base_weights":[6.6556626E-5,2.7243477E-5,2.3782533E-3,-1.174936E-5,1.2027484E-3],"categories":[],"categories_nodes":[],"categories_segments":[],"categories_sizes":[],"default_left":[0,0,0,0,0],"id":58,"left_children":[1,3,-1,-1,-1],"loss_changes":[1.0988614E-5,6.0015177E-6,0E0,0E0,0E0],"parents":[2147483647,0,0,1,1],"right_children":[2,4,-1,-1,-1],"split_conditions":[1E0,1E0,2.3782533E-3,-1.174936E-5,1.2027484E-3],"split_indices":[1146,535,0,0,0],"split_type":[0,0,0,0,0],"sum_hessian":[1.20626274E2,1.1960405E2,1.022224E0,1.1703367E2,2.5703843E0],"tree_param":{"num_deleted":"0","num_feature":"3514","num_nodes":"5","size_leaf_vector":"1"}},{"base_weights":[3.2052085E-5,7.2711764E-6,1.5100258E-3,-1.25428905E-5,7.586485E-4],"categories":[],"categories_nodes":[],"categories_segments":[],"categories_sizes":[],"default_left":[0,0,0,0,0],"id":59,"left_children":[1,3,-1,-1,-1],"loss_changes":[4.443754E-6,2.4554859E-6,0E0,0E0,0E0],"parents":[2147483647,0,0,1,1],"right_children":[2,4,-1,-1,-1],"split_conditions":[1E0,1E0,1.5100258E-3,-1.25428905E-5,7.586485E-4],"split_indices":[2885,1146,0,0,0],"split_type":[0,0,0,0,0],"sum_hessian":[1.20629196E2,1.1962833E2,1.0008662E0,1.1860583E2,1.0224965E0],"tree_param":{"num_deleted":"0","num_feature":"3514","num_nodes":"5","size_leaf_vector":"1"}},{"base_weights":[2.557102E-5,1.2496852E-5,7.9254055E-4],"categories":[],"categories_nodes":[],"categories_segments":[],"categories_sizes":[],"default_left":[0,0,0],"id":60,"left_children":[1,-1,-1],"loss_changes":[1.2097323E-6,0E0,0E0],"parents":[2147483647,0,0],"right_children":[2,-1,-1],"split_conditions":[1E0,1.2496852E-5,7.9254055E-4],"split_indices":[1146,0,0],"split_type":[0,0,0],"sum_hessian":[1.2062932E2,1.1960673E2,1.0225857E0],"tree_param":{"num_deleted":"0","num_feature":"3514","num_nodes":"3","size_leaf_vector":"1"}},{"base_weights":[6.526487E-6,-5.8365495E-6,7.487276E-4],"categories":[],"categories_nodes":[],"categories_segments":[],"categories_sizes":[],"default_left":[0,0,0],"id":61,"left_children":[1,-1,-1],"loss_changes":[1.1204212E-6,0E0,0E0],"parents":[2147483647,0,0],"right_children":[2,-1,-1],"split_conditions":[1E0,-5.8365495E-6,7.487276E-4],"split_indices":[2885,0,0],"split_type":[0,0,0],"sum_hessian":[1.2062906E2,1.1962851E2,1.000547E0],"tree_param":{"num_deleted":"0","num_feature":"3514","num_nodes":"3","size_leaf_vector":"1"}},{"base_weights":[6.520694E-6],"categories":[],"categories_nodes":[],"categories_segments":[],"categories_sizes":[],"default_left":[0],"id":62,"left_children":[-1],"loss_changes":[0E0],"parents":[2147483647],"right_children":[-1],"split_conditions":[6.520694E-6],"split_indices":[0],"split_type":[0],"sum_hessian":[1.206291E2],"tree_param":{"num_deleted":"0","num_feature":"3514","num_nodes":"1","size_leaf_vector":"1"}},{"base_weights":[-4.0052868E-7],"categories":[],"categories_nodes":[],"categories_segments":[],"categories_sizes":[],"default_left":[0],"id":63,"left_children":[-1],"loss_changes":[0E0],"parents":[2147483647],"right_children":[-1],"split_conditions":[-4.0052868E-7],"split_indices":[0],"split_type":[0],"sum_hessian":[1.2062888E2],"tree_param":{"num_deleted":"0","num_feature":"3514","num_nodes":"1","size_leaf_vector":"1"}},{"base_weights":[-3.8103565E-8],"categories":[],"categories_nodes":[],"categories_segments":[],"categories_sizes":[],"default_left":[0],"id":64,"left_children":[-1],"loss_changes":[0E0],"parents":[2147483647],"right_children":[-1],"split_conditions":[-3.8103565E-8],"split_indices":[0],"split_type":[0],"sum_hessian":[1.2062888E2],"tree_param":{"num_deleted":"0","num_feature":"3514","num_nodes":"1","size_leaf_vector":"1"}},{"base_weights":[-3.5898324E-8],"categories":[],"categories_nodes":[],"categories_segments":[],"categories_sizes":[],"default_left":[0],"id":65,"left_children":[-1],"loss_changes":[0E0],"parents":[2147483647],"right_children":[-1],"split_conditions":[-3.5898324E-8],"split_indices":[0],"split_type":[0],"sum_hessian":[1.2062888E2],"tree_param":{"num_deleted":"0","num_feature":"3514","num_nodes":"1","size_leaf_vector":"1"}},{"base_weights":[-3.099779E-8],"categories":[],"categories_nodes":[],"categories_segments":[],"categories_sizes":[],"default_left":[0],"id":66,"left_children":[-1],"loss_changes":[0E0],"parents":[2147483647],"right_children":[-1],"split_conditions":[-3.099779E-8],"split_indices":[0],"split_type":[0],"sum_hessian":[1.2062888E2],"tree_param":{"num_deleted":"0","num_feature":"3514","num_nodes":"1","size_leaf_vector":"1"}},{"base_weights":[-2.9037576E-8],"categories":[],"categories_nodes":[],"categories_segments":[],"categories_sizes":[],"default_left":[0],"id":67,"left_children":[-1],"loss_changes":[0E0],"parents":[2147483647],"right_children":[-1],"split_conditions":[-2.9037576E-8],"split_indices":[0],"split_type":[0],"sum_hessian":[1.2062888E2],"tree_param":{"num_deleted":"0","num_feature":"3514","num_nodes":"1","size_leaf_vector":"1"}},{"base_weights":[-2.9037576E-8],"categories":[],"categories_nodes":[],"categories_segments":[],"categories_sizes":[],"default_left":[0],"id":68,"left_children":[-1],"loss_changes":[0E0],"parents":[2147483647],"right_children":[-1],"split_conditions":[-2.9037576E-8],"split_indices":[0],"split_type":[0],"sum_hessian":[1.2062888E2],"tree_param":{"num_deleted":"0","num_feature":"3514","num_nodes":"1","size_leaf_vector":"1"}},{"base_weights":[-2.8547523E-8],"categories":[],"categories_nodes":[],"categories_segments":[],"categories_sizes":[],"default_left":[0],"id":69,"left_children":[-1],"loss_changes":[0E0],"parents":[2147483647],"right_children":[-1],"split_conditions":[-2.8547523E-8],"split_indices":[0],"split_type":[0],"sum_hessian":[1.2062888E2],"tree_param":{"num_deleted":"0","num_feature":"3514","num_nodes":"1","size_leaf_vector":"1"}},{"base_weights":[-2.8547523E-8],"categories":[],"categories_nodes":[],"categories_segments":[],"categories_sizes":[],"default_left":[0],"id":70,"left_children":[-1],"loss_changes":[0E0],"parents":[2147483647],"right_children":[-1],"split_conditions":[-2.8547523E-8],"split_indices":[0],"split_type":[0],"sum_hessian":[1.2062888E2],"tree_param":{"num_deleted":"0","num_feature":"3514","num_nodes":"1","size_leaf_vector":"1"}},{"base_weights":[-2.805747E-8],"categories":[],"categories_nodes":[],"categories_segments":[],"categories_sizes":[],"default_left":[0],"id":71,"left_children":[-1],"loss_changes":[0E0],"parents":[2147483647],"right_children":[-1],"split_conditions":[-2.805747E-8],"split_indices":[0],"split_type":[0],"sum_hessian":[1.2062888E2],"tree_param":{"num_deleted":"0","num_feature":"3514","num_nodes":"1","size_leaf_vector":"1"}},{"base_weights":[-2.805747E-8],"categories":[],"categories_nodes":[],"categories_segments":[],"categories_sizes":[],"default_left":[0],"id":72,"left_children":[-1],"loss_changes":[0E0],"parents":[2147483647],"right_children":[-1],"split_conditions":[-2.805747E-8],"split_indices":[0],"split_type":[0],"sum_hessian":[1.2062888E2],"tree_param":{"num_deleted":"0","num_feature":"3514","num_nodes":"1","size_leaf_vector":"1"}},{"base_weights":[-2.805747E-8],"categories":[],"categories_nodes":[],"categories_segments":[],"categories_sizes":[],"default_left":[0],"id":73,"left_children":[-1],"loss_changes":[0E0],"parents":[2147483647],"right_children":[-1],"split_conditions":[-2.805747E-8],"split_indices":[0],"split_type":[0],"sum_hessian":[1.2062888E2],"tree_param":{"num_deleted":"0","num_feature":"3514","num_nodes":"1","size_leaf_vector":"1"}},{"base_weights":[-2.805747E-8],"categories":[],"categories_nodes":[],"categories_segments":[],"categories_sizes":[],"default_left":[0],"id":74,"left_children":[-1],"loss_changes":[0E0],"parents":[2147483647],"right_children":[-1],"split_conditions":[-2.805747E-8],"split_indices":[0],"split_type":[0],"sum_hessian":[1.2062888E2],"tree_param":{"num_deleted":"0","num_feature":"3514","num_nodes":"1","size_leaf_vector":"1"}},{"base_weights":[-2.805747E-8],"categories":[],"categories_nodes":[],"categories_segments":[],"categories_sizes":[],"default_left":[0],"id":75,"left_children":[-1],"loss_changes":[0E0],"parents":[2147483647],"right_children":[-1],"split_conditions":[-2.805747E-8],"split_indices":[0],"split_type":[0],"sum_hessian":[1.2062888E2],"tree_param":{"num_deleted":"0","num_feature":"3514","num_nodes":"1","size_leaf_vector":"1"}},{"base_weights":[-2.7567417E-8],"categories":[],"categories_nodes":[],"categories_segments":[],"categories_sizes":[],"default_left":[0],"id":76,"left_children":[-1],"loss_changes":[0E0],"parents":[2147483647],"right_children":[-1],"split_conditions":[-2.7567417E-8],"split_indices":[0],"split_type":[0],"sum_hessian":[1.2062888E2],"tree_param":{"num_deleted":"0","num_feature":"3514","num_nodes":"1","size_leaf_vector":"1"}},{"base_weights":[-2.7567417E-8],"categories":[],"categories_nodes":[],"categories_segments":[],"categories_sizes":[],"default_left":[0],"id":77,"left_children":[-1],"loss_changes":[0E0],"parents":[2147483647],"right_children":[-1],"split_conditions":[-2.7567417E-8],"split_indices":[0],"split_type":[0],"sum_hessian":[1.2062888E2],"tree_param":{"num_deleted":"0","num_feature":"3514","num_nodes":"1","size_leaf_vector":"1"}},{"base_weights":[-2.4137043E-8],"categories":[],"categories_nodes":[],"categories_segments":[],"categories_sizes":[],"default_left":[0],"id":78,"left_children":[-1],"loss_changes":[0E0],"parents":[2147483647],"right_children":[-1],"split_conditions":[-2.4137043E-8],"split_indices":[0],"split_type":[0],"sum_hessian":[1.2062888E2],"tree_param":{"num_deleted":"0","num_feature":"3514","num_nodes":"1","size_leaf_vector":"1"}},{"base_weights":[-2.4137043E-8],"categories":[],"categories_nodes":[],"categories_segments":[],"categories_sizes":[],"default_left":[0],"id":79,"left_children":[-1],"loss_changes":[0E0],"parents":[2147483647],"right_children":[-1],"split_conditions":[-2.4137043E-8],"split_indices":[0],"split_type":[0],"sum_hessian":[1.2062888E2],"tree_param":{"num_deleted":"0","num_feature":"3514","num_nodes":"1","size_leaf_vector":"1"}},{"base_weights":[-2.4137043E-8],"categories":[],"categories_nodes":[],"categories_segments":[],"categories_sizes":[],"default_left":[0],"id":80,"left_children":[-1],"loss_changes":[0E0],"parents":[2147483647],"right_children":[-1],"split_conditions":[-2.4137043E-8],"split_indices":[0],"split_type":[0],"sum_hessian":[1.2062888E2],"tree_param":{"num_deleted":"0","num_feature":"3514","num_nodes":"1","size_leaf_vector":"1"}},{"base_weights":[-2.3646988E-8],"categories":[],"categories_nodes":[],"categories_segments":[],"categories_sizes":[],"default_left":[0],"id":81,"left_children":[-1],"loss_changes":[0E0],"parents":[2147483647],"right_children":[-1],"split_conditions":[-2.3646988E-8],"split_indices":[0],"split_type":[0],"sum_hessian":[1.2062888E2],"tree_param":{"num_deleted":"0","num_feature":"3514","num_nodes":"1","size_leaf_vector":"1"}},{"base_weights":[-2.3646988E-8],"categories":[],"categories_nodes":[],"categories_segments":[],"categories_sizes":[],"default_left":[0],"id":82,"left_children":[-1],"loss_changes":[0E0],"parents":[2147483647],"right_children":[-1],"split_conditions":[-2.3646988E-8],"split_indices":[0],"split_type":[0],"sum_hessian":[1.2062888E2],"tree_param":{"num_deleted":"0","num_feature":"3514","num_nodes":"1","size_leaf_vector":"1"}},{"base_weights":[-2.3646988E-8],"categories":[],"categories_nodes":[],"categories_segments":[],"categories_sizes":[],"default_left":[0],"id":83,"left_children":[-1],"loss_changes":[0E0],"parents":[2147483647],"right_children":[-1],"split_conditions":[-2.3646988E-8],"split_indices":[0],"split_type":[0],"sum_hessian":[1.2062888E2],"tree_param":{"num_deleted":"0","num_feature":"3514","num_nodes":"1","size_leaf_vector":"1"}},{"base_weights":[-2.3646988E-8],"categories":[],"categories_nodes":[],"categories_segments":[],"categories_sizes":[],"default_left":[0],"id":84,"left_children":[-1],"loss_changes":[0E0],"parents":[2147483647],"right_children":[-1],"split_conditions":[-2.3646988E-8],"split_indices":[0],"split_type":[0],"sum_hessian":[1.2062888E2],"tree_param":{"num_deleted":"0","num_feature":"3514","num_nodes":"1","size_leaf_vector":"1"}},{"base_weights":[-2.3646988E-8],"categories":[],"categories_nodes":[],"categories_segments":[],"categories_sizes":[],"default_left":[0],"id":85,"left_children":[-1],"loss_changes":[0E0],"parents":[2147483647],"right_children":[-1],"split_conditions":[-2.3646988E-8],"split_indices":[0],"split_type":[0],"sum_hessian":[1.2062888E2],"tree_param":{"num_deleted":"0","num_feature":"3514","num_nodes":"1","size_leaf_vector":"1"}},{"base_weights":[-2.3646988E-8],"categories":[],"categories_nodes":[],"categories_segments":[],"categories_sizes":[],"default_left":[0],"id":86,"left_children":[-1],"loss_changes":[0E0],"parents":[2147483647],"right_children":[-1],"split_conditions":[-2.3646988E-8],"split_indices":[0],"split_type":[0],"sum_hessian":[1.2062888E2],"tree_param":{"num_deleted":"0","num_feature":"3514","num_nodes":"1","size_leaf_vector":"1"}},{"base_weights":[-1.9726562E-8],"categories":[],"categories_nodes":[],"categories_segments":[],"categories_sizes":[],"default_left":[0],"id":87,"left_children":[-1],"loss_changes":[0E0],"parents":[2147483647],"right_children":[-1],"split_conditions":[-1.9726562E-8],"split_indices":[0],"split_type":[0],"sum_hessian":[1.2062888E2],"tree_param":{"num_deleted":"0","num_feature":"3514","num_nodes":"1","size_leaf_vector":"1"}},{"base_weights":[-1.9726562E-8],"categories":[],"categories_nodes":[],"categories_segments":[],"categories_sizes":[],"default_left":[0],"id":88,"left_children":[-1],"loss_changes":[0E0],"parents":[2147483647],"right_children":[-1],"split_conditions":[-1.9726562E-8],"split_indices":[0],"split_type":[0],"sum_hessian":[1.2062888E2],"tree_param":{"num_deleted":"0","num_feature":"3514","num_nodes":"1","size_leaf_vector":"1"}},{"base_weights":[-1.9726562E-8],"categories":[],"categories_nodes":[],"categories_segments":[],"categories_sizes":[],"default_left":[0],"id":89,"left_children":[-1],"loss_changes":[0E0],"parents":[2147483647],"right_children":[-1],"split_conditions":[-1.9726562E-8],"split_indices":[0],"split_type":[0],"sum_hessian":[1.2062888E2],"tree_param":{"num_deleted":"0","num_feature":"3514","num_nodes":"1","size_leaf_vector":"1"}},{"base_weights":[-1.5806135E-8],"categories":[],"categories_nodes":[],"categories_segments":[],"categories_sizes":[],"default_left":[0],"id":90,"left_children":[-1],"loss_changes":[0E0],"parents":[2147483647],"right_children":[-1],"split_conditions":[-1.5806135E-8],"split_indices":[0],"split_type":[0],"sum_hessian":[1.2062888E2],"tree_param":{"num_deleted":"0","num_feature":"3514","num_nodes":"1","size_leaf_vector":"1"}},{"base_weights":[-1.5806135E-8],"categories":[],"categories_nodes":[],"categories_segments":[],"categories_sizes":[],"default_left":[0],"id":91,"left_children":[-1],"loss_changes":[0E0],"parents":[2147483647],"right_children":[-1],"split_conditions":[-1.5806135E-8],"split_indices":[0],"split_type":[0],"sum_hessian":[1.2062888E2],"tree_param":{"num_deleted":"0","num_feature":"3514","num_nodes":"1","size_leaf_vector":"1"}},{"base_weights":[-1.5806135E-8],"categories":[],"categories_nodes":[],"categories_segments":[],"categories_sizes":[],"default_left":[0],"id":92,"left_children":[-1],"loss_changes":[0E0],"parents":[2147483647],"right_children":[-1],"split_conditions":[-1.5806135E-8],"split_indices":[0],"split_type":[0],"sum_hessian":[1.2062888E2],"tree_param":{"num_deleted":"0","num_feature":"3514","num_nodes":"1","size_leaf_vector":"1"}},{"base_weights":[-1.5316083E-8],"categories":[],"categories_nodes":[],"categories_segments":[],"categories_sizes":[],"default_left":[0],"id":93,"left_children":[-1],"loss_changes":[0E0],"parents":[2147483647],"right_children":[-1],"split_conditions":[-1.5316083E-8],"split_indices":[0],"split_type":[0],"sum_hessian":[1.2062888E2],"tree_param":{"num_deleted":"0","num_feature":"3514","num_nodes":"1","size_leaf_vector":"1"}},{"base_weights":[-1.5316083E-8],"categories":[],"categories_nodes":[],"categories_segments":[],"categories_sizes":[],"default_left":[0],"id":94,"left_children":[-1],"loss_changes":[0E0],"parents":[2147483647],"right_children":[-1],"split_conditions":[-1.5316083E-8],"split_indices":[0],"split_type":[0],"sum_hessian":[1.2062888E2],"tree_param":{"num_deleted":"0","num_feature":"3514","num_nodes":"1","size_leaf_vector":"1"}},{"base_weights":[-1.5316083E-8],"categories":[],"categories_nodes":[],"categories_segments":[],"categories_sizes":[],"default_left":[0],"id":95,"left_children":[-1],"loss_changes":[0E0],"parents":[2147483647],"right_children":[-1],"split_conditions":[-1.5316083E-8],"split_indices":[0],"split_type":[0],"sum_hessian":[1.2062888E2],"tree_param":{"num_deleted":"0","num_feature":"3514","num_nodes":"1","size_leaf_vector":"1"}},{"base_weights":[-1.5316083E-8],"categories":[],"categories_nodes":[],"categories_segments":[],"categories_sizes":[],"default_left":[0],"id":96,"left_children":[-1],"loss_changes":[0E0],"parents":[2147483647],"right_children":[-1],"split_conditions":[-1.5316083E-8],"split_indices":[0],"split_type":[0],"sum_hessian":[1.2062888E2],"tree_param":{"num_deleted":"0","num_feature":"3514","num_nodes":"1","size_leaf_vector":"1"}},{"base_weights":[-1.5316083E-8],"categories":[],"categories_nodes":[],"categories_segments":[],"categories_sizes":[],"default_left":[0],"id":97,"left_children":[-1],"loss_changes":[0E0],"parents":[2147483647],"right_children":[-1],"split_conditions":[-1.5316083E-8],"split_indices":[0],"split_type":[0],"sum_hessian":[1.2062888E2],"tree_param":{"num_deleted":"0","num_feature":"3514","num_nodes":"1","size_leaf_vector":"1"}},{"base_weights":[-1.5316083E-8],"categories":[],"categories_nodes":[],"categories_segments":[],"categories_sizes":[],"default_left":[0],"id":98,"left_children":[-1],"loss_changes":[0E0],"parents":[2147483647],"right_children":[-1],"split_conditions":[-1.5316083E-8],"split_indices":[0],"split_type":[0],"sum_hessian":[1.2062888E2],"tree_param":{"num_deleted":"0","num_feature":"3514","num_nodes":"1","size_leaf_vector":"1"}},{"base_weights":[-1.5316083E-8],"categories":[],"categories_nodes":[],"categories_segments":[],"categories_sizes":[],"default_left":[0],"id":99,"left_children":[-1],"loss_changes":[0E0],"parents":[2147483647],"right_children":[-1],"split_conditions":[-1.5316083E-8],"split_indices":[0],"split_type":[0],"sum_hessian":[1.2062888E2],"tree_param":{"num_deleted":"0","num_feature":"3514","num_nodes":"1","size_leaf_vector":"1"}},{"base_weights":[-1.5316083E-8],"categories":[],"categories_nodes":[],"categories_segments":[],"categories_sizes":[],"default_left":[0],"id":100,"left_children":[-1],"loss_changes":[0E0],"parents":[2147483647],"right_children":[-1],"split_conditions":[-1.5316083E-8],"split_indices":[0],"split_type":[0],"sum_hessian":[1.2062888E2],"tree_param":{"num_deleted":"0","num_feature":"3514","num_nodes":"1","size_leaf_vector":"1"}},{"base_weights":[-1.5316083E-8],"categories":[],"categories_nodes":[],"categories_segments":[],"categories_sizes":[],"default_left":[0],"id":101,"left_children":[-1],"loss_changes":[0E0],"parents":[2147483647],"right_children":[-1],"split_conditions":[-1.5316083E-8],"split_indices":[0],"split_type":[0],"sum_hessian":[1.2062888E2],"tree_param":{"num_deleted":"0","num_feature":"3514","num_nodes":"1","size_leaf_vector":"1"}},{"base_weights":[-1.1395655E-8],"categories":[],"categories_nodes":[],"categories_segments":[],"categories_sizes":[],"default_left":[0],"id":102,"left_children":[-1],"loss_changes":[0E0],"parents":[2147483647],"right_children":[-1],"split_conditions":[-1.1395655E-8],"split_indices":[0],"split_type":[0],"sum_hessian":[1.2062888E2],"tree_param":{"num_deleted":"0","num_feature":"3514","num_nodes":"1","size_leaf_vector":"1"}},{"base_weights":[-1.1395655E-8],"categories":[],"categories_nodes":[],"categories_segments":[],"categories_sizes":[],"default_left":[0],"id":103,"left_children":[-1],"loss_changes":[0E0],"parents":[2147483647],"right_children":[-1],"split_conditions":[-1.1395655E-8],"split_indices":[0],"split_type":[0],"sum_hessian":[1.2062888E2],"tree_param":{"num_deleted":"0","num_feature":"3514","num_nodes":"1","size_leaf_vector":"1"}},{"base_weights":[-1.1395655E-8],"categories":[],"categories_nodes":[],"categories_segments":[],"categories_sizes":[],"default_left":[0],"id":104,"left_children":[-1],"loss_changes":[0E0],"parents":[2147483647],"right_children":[-1],"split_conditions":[-1.1395655E-8],"split_indices":[0],"split_type":[0],"sum_hessian":[1.2062888E2],"tree_param":{"num_deleted":"0","num_feature":"3514","num_nodes":"1","size_leaf_vector":"1"}},{"base_weights":[-1.1395655E-8],"categories":[],"categories_nodes":[],"categories_segments":[],"categories_sizes":[],"default_left":[0],"id":105,"left_children":[-1],"loss_changes":[0E0],"parents":[2147483647],"right_children":[-1],"split_conditions":[-1.1395655E-8],"split_indices":[0],"split_type":[0],"sum_hessian":[1.2062888E2],"tree_param":{"num_deleted":"0","num_feature":"3514","num_nodes":"1","size_leaf_vector":"1"}},{"base_weights":[-1.1395655E-8],"categories":[],"categories_nodes":[],"categories_segments":[],"categories_sizes":[],"default_left":[0],"id":106,"left_children":[-1],"loss_changes":[0E0],"parents":[2147483647],"right_children":[-1],"split_conditions":[-1.1395655E-8],"split_indices":[0],"split_type":[0],"sum_hessian":[1.2062888E2],"tree_param":{"num_deleted":"0","num_feature":"3514","num_nodes":"1","size_leaf_vector":"1"}},{"base_weights":[-1.1395655E-8],"categories":[],"categories_nodes":[],"categories_segments":[],"categories_sizes":[],"default_left":[0],"id":107,"left_children":[-1],"loss_changes":[0E0],"parents":[2147483647],"right_children":[-1],"split_conditions":[-1.1395655E-8],"split_indices":[0],"split_type":[0],"sum_hessian":[1.2062888E2],"tree_param":{"num_deleted":"0","num_feature":"3514","num_nodes":"1","size_leaf_vector":"1"}},{"base_weights":[-1.1395655E-8],"categories":[],"categories_nodes":[],"categories_segments":[],"categories_sizes":[],"default_left":[0],"id":108,"left_children":[-1],"loss_changes":[0E0],"parents":[2147483647],"right_children":[-1],"split_conditions":[-1.1395655E-8],"split_indices":[0],"split_type":[0],"sum_hessian":[1.2062888E2],"tree_param":{"num_deleted":"0","num_feature":"3514","num_nodes":"1","size_leaf_vector":"1"}},{"base_weights":[-1.1395655E-8],"categories":[],"categories_nodes":[],"categories_segments":[],"categories_sizes":[],"default_left":[0],"id":109,"left_children":[-1],"loss_changes":[0E0],"parents":[2147483647],"right_children":[-1],"split_conditions":[-1.1395655E-8],"split_indices":[0],"split_type":[0],"sum_hessian":[1.2062888E2],"tree_param":{"num_deleted":"0","num_feature":"3514","num_nodes":"1","size_leaf_vector":"1"}},{"base_weights":[-1.1395655E-8],"categories":[],"categories_nodes":[],"categories_segments":[],"categories_sizes":[],"default_left":[0],"id":110,"left_children":[-1],"loss_changes":[0E0],"parents":[2147483647],"right_children":[-1],"split_conditions":[-1.1395655E-8],"split_indices":[0],"split_type":[0],"sum_hessian":[1.2062888E2],"tree_param":{"num_deleted":"0","num_feature":"3514","num_nodes":"1","size_leaf_vector":"1"}},{"base_weights":[-1.0905602E-8],"categories":[],"categories_nodes":[],"categories_segments":[],"categories_sizes":[],"default_left":[0],"id":111,"left_children":[-1],"loss_changes":[0E0],"parents":[2147483647],"right_children":[-1],"split_conditions":[-1.0905602E-8],"split_indices":[0],"split_type":[0],"sum_hessian":[1.2062888E2],"tree_param":{"num_deleted":"0","num_feature":"3514","num_nodes":"1","size_leaf_vector":"1"}},{"base_weights":[-1.0905602E-8],"categories":[],"categories_nodes":[],"categories_segments":[],"categories_sizes":[],"default_left":[0],"id":112,"left_children":[-1],"loss_changes":[0E0],"parents":[2147483647],"right_children":[-1],"split_conditions":[-1.0905602E-8],"split_indices":[0],"split_type":[0],"sum_hessian":[1.2062888E2],"tree_param":{"num_deleted":"0","num_feature":"3514","num_nodes":"1","size_leaf_vector":"1"}},{"base_weights":[-1.0905602E-8],"categories":[],"categories_nodes":[],"categories_segments":[],"categories_sizes":[],"default_left":[0],"id":113,"left_children":[-1],"loss_changes":[0E0],"parents":[2147483647],"right_children":[-1],"split_conditions":[-1.0905602E-8],"split_indices":[0],"split_type":[0],"sum_hessian":[1.2062888E2],"tree_param":{"num_deleted":"0","num_feature":"3514","num_nodes":"1","size_leaf_vector":"1"}},{"base_weights":[-1.0905602E-8],"categories":[],"categories_nodes":[],"categories_segments":[],"categories_sizes":[],"default_left":[0],"id":114,"left_children":[-1],"loss_changes":[0E0],"parents":[2147483647],"right_children":[-1],"split_conditions":[-1.0905602E-8],"split_indices":[0],"split_type":[0],"sum_hessian":[1.2062888E2],"tree_param":{"num_deleted":"0","num_feature":"3514","num_nodes":"1","size_leaf_vector":"1"}},{"base_weights":[-1.0905602E-8],"categories":[],"categories_nodes":[],"categories_segments":[],"categories_sizes":[],"default_left":[0],"id":115,"left_children":[-1],"loss_changes":[0E0],"parents":[2147483647],"right_children":[-1],"split_conditions":[-1.0905602E-8],"split_indices":[0],"split_type":[0],"sum_hessian":[1.2062888E2],"tree_param":{"num_deleted":"0","num_feature":"3514","num_nodes":"1","size_leaf_vector":"1"}},{"base_weights":[-1.0905602E-8],"categories":[],"categories_nodes":[],"categories_segments":[],"categories_sizes":[],"default_left":[0],"id":116,"left_children":[-1],"loss_changes":[0E0],"parents":[2147483647],"right_children":[-1],"split_conditions":[-1.0905602E-8],"split_indices":[0],"split_type":[0],"sum_hessian":[1.2062888E2],"tree_param":{"num_deleted":"0","num_feature":"3514","num_nodes":"1","size_leaf_vector":"1"}},{"base_weights":[-1.0905602E-8],"categories":[],"categories_nodes":[],"categories_segments":[],"categories_sizes":[],"default_left":[0],"id":117,"left_children":[-1],"loss_changes":[0E0],"parents":[2147483647],"right_children":[-1],"split_conditions":[-1.0905602E-8],"split_indices":[0],"split_type":[0],"sum_hessian":[1.2062888E2],"tree_param":{"num_deleted":"0","num_feature":"3514","num_nodes":"1","size_leaf_vector":"1"}},{"base_weights":[-1.0905602E-8],"categories":[],"categories_nodes":[],"categories_segments":[],"categories_sizes":[],"default_left":[0],"id":118,"left_children":[-1],"loss_changes":[0E0],"parents":[2147483647],"right_children":[-1],"split_conditions":[-1.0905602E-8],"split_indices":[0],"split_type":[0],"sum_hessian":[1.2062888E2],"tree_param":{"num_deleted":"0","num_feature":"3514","num_nodes":"1","size_leaf_vector":"1"}},{"base_weights":[-1.0905602E-8],"categories":[],"categories_nodes":[],"categories_segments":[],"categories_sizes":[],"default_left":[0],"id":119,"left_children":[-1],"loss_changes":[0E0],"parents":[2147483647],"right_children":[-1],"split_conditions":[-1.0905602E-8],"split_indices":[0],"split_type":[0],"sum_hessian":[1.2062888E2],"tree_param":{"num_deleted":"0","num_feature":"3514","num_nodes":"1","size_leaf_vector":"1"}},{"base_weights":[-1.0905602E-8],"categories":[],"categories_nodes":[],"categories_segments":[],"categories_sizes":[],"default_left":[0],"id":120,"left_children":[-1],"loss_changes":[0E0],"parents":[2147483647],"right_children":[-1],"split_conditions":[-1.0905602E-8],"split_indices":[0],"split_type":[0],"sum_hessian":[1.2062888E2],"tree_param":{"num_deleted":"0","num_feature":"3514","num_nodes":"1","size_leaf_vector":"1"}},{"base_weights":[-1.0905602E-8],"categories":[],"categories_nodes":[],"categories_segments":[],"categories_sizes":[],"default_left":[0],"id":121,"left_children":[-1],"loss_changes":[0E0],"parents":[2147483647],"right_children":[-1],"split_conditions":[-1.0905602E-8],"split_indices":[0],"split_type":[0],"sum_hessian":[1.2062888E2],"tree_param":{"num_deleted":"0","num_feature":"3514","num_nodes":"1","size_leaf_vector":"1"}},{"base_weights":[-1.0905602E-8],"categories":[],"categories_nodes":[],"categories_segments":[],"categories_sizes":[],"default_left":[0],"id":122,"left_children":[-1],"loss_changes":[0E0],"parents":[2147483647],"right_children":[-1],"split_conditions":[-1.0905602E-8],"split_indices":[0],"split_type":[0],"sum_hessian":[1.2062888E2],"tree_param":{"num_deleted":"0","num_feature":"3514","num_nodes":"1","size_leaf_vector":"1"}},{"base_weights":[-1.0905602E-8],"categories":[],"categories_nodes":[],"categories_segments":[],"categories_sizes":[],"default_left":[0],"id":123,"left_children":[-1],"loss_changes":[0E0],"parents":[2147483647],"right_children":[-1],"split_conditions":[-1.0905602E-8],"split_indices":[0],"split_type":[0],"sum_hessian":[1.2062888E2],"tree_param":{"num_deleted":"0","num_feature":"3514","num_nodes":"1","size_leaf_vector":"1"}},{"base_weights":[-1.0905602E-8],"categories":[],"categories_nodes":[],"categories_segments":[],"categories_sizes":[],"default_left":[0],"id":124,"left_children":[-1],"loss_changes":[0E0],"parents":[2147483647],"right_children":[-1],"split_conditions":[-1.0905602E-8],"split_indices":[0],"split_type":[0],"sum_hessian":[1.2062888E2],"tree_param":{"num_deleted":"0","num_feature":"3514","num_nodes":"1","size_leaf_vector":"1"}},{"base_weights":[-1.0415548E-8],"categories":[],"categories_nodes":[],"categories_segments":[],"categories_sizes":[],"default_left":[0],"id":125,"left_children":[-1],"loss_changes":[0E0],"parents":[2147483647],"right_children":[-1],"split_conditions":[-1.0415548E-8],"split_indices":[0],"split_type":[0],"sum_hessian":[1.2062888E2],"tree_param":{"num_deleted":"0","num_feature":"3514","num_nodes":"1","size_leaf_vector":"1"}},{"base_weights":[-1.0415548E-8],"categories":[],"categories_nodes":[],"categories_segments":[],"categories_sizes":[],"default_left":[0],"id":126,"left_children":[-1],"loss_changes":[0E0],"parents":[2147483647],"right_children":[-1],"split_conditions":[-1.0415548E-8],"split_indices":[0],"split_type":[0],"sum_hessian":[1.2062888E2],"tree_param":{"num_deleted":"0","num_feature":"3514","num_nodes":"1","size_leaf_vector":"1"}},{"base_weights":[-1.0415548E-8],"categories":[],"categories_nodes":[],"categories_segments":[],"categories_sizes":[],"default_left":[0],"id":127,"left_children":[-1],"loss_changes":[0E0],"parents":[2147483647],"right_children":[-1],"split_conditions":[-1.0415548E-8],"split_indices":[0],"split_type":[0],"sum_hessian":[1.2062888E2],"tree_param":{"num_deleted":"0","num_feature":"3514","num_nodes":"1","size_leaf_vector":"1"}},{"base_weights":[-1.0415548E-8],"categories":[],"categories_nodes":[],"categories_segments":[],"categories_sizes":[],"default_left":[0],"id":128,"left_children":[-1],"loss_changes":[0E0],"parents":[2147483647],"right_children":[-1],"split_conditions":[-1.0415548E-8],"split_indices":[0],"split_type":[0],"sum_hessian":[1.2062888E2],"tree_param":{"num_deleted":"0","num_feature":"3514","num_nodes":"1","size_leaf_vector":"1"}},{"base_weights":[-1.0415548E-8],"categories":[],"categories_nodes":[],"categories_segments":[],"categories_sizes":[],"default_left":[0],"id":129,"left_children":[-1],"loss_changes":[0E0],"parents":[2147483647],"right_children":[-1],"split_conditions":[-1.0415548E-8],"split_indices":[0],"split_type":[0],"sum_hessian":[1.2062888E2],"tree_param":{"num_deleted":"0","num_feature":"3514","num_nodes":"1","size_leaf_vector":"1"}},{"base_weights":[-1.0415548E-8],"categories":[],"categories_nodes":[],"categories_segments":[],"categories_sizes":[],"default_left":[0],"id":130,"left_children":[-1],"loss_changes":[0E0],"parents":[2147483647],"right_children":[-1],"split_conditions":[-1.0415548E-8],"split_indices":[0],"split_type":[0],"sum_hessian":[1.2062888E2],"tree_param":{"num_deleted":"0","num_feature":"3514","num_nodes":"1","size_leaf_vector":"1"}},{"base_weights":[-1.0415548E-8],"categories":[],"categories_nodes":[],"categories_segments":[],"categories_sizes":[],"default_left":[0],"id":131,"left_children":[-1],"loss_changes":[0E0],"parents":[2147483647],"right_children":[-1],"split_conditions":[-1.0415548E-8],"split_indices":[0],"split_type":[0],"sum_hessian":[1.2062888E2],"tree_param":{"num_deleted":"0","num_feature":"3514","num_nodes":"1","size_leaf_vector":"1"}},{"base_weights":[-1.0415548E-8],"categories":[],"categories_nodes":[],"categories_segments":[],"categories_sizes":[],"default_left":[0],"id":132,"left_children":[-1],"loss_changes":[0E0],"parents":[2147483647],"right_children":[-1],"split_conditions":[-1.0415548E-8],"split_indices":[0],"split_type":[0],"sum_hessian":[1.2062888E2],"tree_param":{"num_deleted":"0","num_feature":"3514","num_nodes":"1","size_leaf_vector":"1"}},{"base_weights":[-1.0415548E-8],"categories":[],"categories_nodes":[],"categories_segments":[],"categories_sizes":[],"default_left":[0],"id":133,"left_children":[-1],"loss_changes":[0E0],"parents":[2147483647],"right_children":[-1],"split_conditions":[-1.0415548E-8],"split_indices":[0],"split_type":[0],"sum_hessian":[1.2062888E2],"tree_param":{"num_deleted":"0","num_feature":"3514","num_nodes":"1","size_leaf_vector":"1"}},{"base_weights":[-1.0415548E-8],"categories":[],"categories_nodes":[],"categories_segments":[],"categories_sizes":[],"default_left":[0],"id":134,"left_children":[-1],"loss_changes":[0E0],"parents":[2147483647],"right_children":[-1],"split_conditions":[-1.0415548E-8],"split_indices":[0],"split_type":[0],"sum_hessian":[1.2062888E2],"tree_param":{"num_deleted":"0","num_feature":"3514","num_nodes":"1","size_leaf_vector":"1"}},{"base_weights":[-1.0415548E-8],"categories":[],"categories_nodes":[],"categories_segments":[],"categories_sizes":[],"default_left":[0],"id":135,"left_children":[-1],"loss_changes":[0E0],"parents":[2147483647],"right_children":[-1],"split_conditions":[-1.0415548E-8],"split_indices":[0],"split_type":[0],"sum_hessian":[1.2062888E2],"tree_param":{"num_deleted":"0","num_feature":"3514","num_nodes":"1","size_leaf_vector":"1"}},{"base_weights":[-1.0415548E-8],"categories":[],"categories_nodes":[],"categories_segments":[],"categories_sizes":[],"default_left":[0],"id":136,"left_children":[-1],"loss_changes":[0E0],"parents":[2147483647],"right_children":[-1],"split_conditions":[-1.0415548E-8],"split_indices":[0],"split_type":[0],"sum_hessian":[1.2062888E2],"tree_param":{"num_deleted":"0","num_feature":"3514","num_nodes":"1","size_leaf_vector":"1"}},{"base_weights":[-1.0415548E-8],"categories":[],"categories_nodes":[],"categories_segments":[],"categories_sizes":[],"default_left":[0],"id":137,"left_children":[-1],"loss_changes":[0E0],"parents":[2147483647],"right_children":[-1],"split_conditions":[-1.0415548E-8],"split_indices":[0],"split_type":[0],"sum_hessian":[1.2062888E2],"tree_param":{"num_deleted":"0","num_feature":"3514","num_nodes":"1","size_leaf_vector":"1"}},{"base_weights":[-1.0415548E-8],"categories":[],"categories_nodes":[],"categories_segments":[],"categories_sizes":[],"default_left":[0],"id":138,"left_children":[-1],"loss_changes":[0E0],"parents":[2147483647],"right_children":[-1],"split_conditions":[-1.0415548E-8],"split_indices":[0],"split_type":[0],"sum_hessian":[1.2062888E2],"tree_param":{"num_deleted":"0","num_feature":"3514","num_nodes":"1","size_leaf_vector":"1"}},{"base_weights":[-1.0415548E-8],"categories":[],"categories_nodes":[],"categories_segments":[],"categories_sizes":[],"default_left":[0],"id":139,"left_children":[-1],"loss_changes":[0E0],"parents":[2147483647],"right_children":[-1],"split_conditions":[-1.0415548E-8],"split_indices":[0],"split_type":[0],"sum_hessian":[1.2062888E2],"tree_param":{"num_deleted":"0","num_feature":"3514","num_nodes":"1","size_leaf_vector":"1"}},{"base_weights":[-1.0415548E-8],"categories":[],"categories_nodes":[],"categories_segments":[],"categories_sizes":[],"default_left":[0],"id":140,"left_children":[-1],"loss_changes":[0E0],"parents":[2147483647],"right_children":[-1],"split_conditions":[-1.0415548E-8],"split_indices":[0],"split_type":[0],"sum_hessian":[1.2062888E2],"tree_param":{"num_deleted":"0","num_feature":"3514","num_nodes":"1","size_leaf_vector":"1"}},{"base_weights":[-1.0415548E-8],"categories":[],"categories_nodes":[],"categories_segments":[],"categories_sizes":[],"default_left":[0],"id":141,"left_children":[-1],"loss_changes":[0E0],"parents":[2147483647],"right_children":[-1],"split_conditions":[-1.0415548E-8],"split_indices":[0],"split_type":[0],"sum_hessian":[1.2062888E2],"tree_param":{"num_deleted":"0","num_feature":"3514","num_nodes":"1","size_leaf_vector":"1"}},{"base_weights":[-1.0415548E-8],"categories":[],"categories_nodes":[],"categories_segments":[],"categories_sizes":[],"default_left":[0],"id":142,"left_children":[-1],"loss_changes":[0E0],"parents":[2147483647],"right_children":[-1],"split_conditions":[-1.0415548E-8],"split_indices":[0],"split_type":[0],"sum_hessian":[1.2062888E2],"tree_param":{"num_deleted":"0","num_feature":"3514","num_nodes":"1","size_leaf_vector":"1"}},{"base_weights":[-1.0415548E-8],"categories":[],"categories_nodes":[],"categories_segments":[],"categories_sizes":[],"default_left":[0],"id":143,"left_children":[-1],"loss_changes":[0E0],"parents":[2147483647],"right_children":[-1],"split_conditions":[-1.0415548E-8],"split_indices":[0],"split_type":[0],"sum_hessian":[1.2062888E2],"tree_param":{"num_deleted":"0","num_feature":"3514","num_nodes":"1","size_leaf_vector":"1"}},{"base_weights":[-9.925495E-9],"categories":[],"categories_nodes":[],"categories_segments":[],"categories_sizes":[],"default_left":[0],"id":144,"left_children":[-1],"loss_changes":[0E0],"parents":[2147483647],"right_children":[-1],"split_conditions":[-9.925495E-9],"split_indices":[0],"split_type":[0],"sum_hessian":[1.2062888E2],"tree_param":{"num_deleted":"0","num_feature":"3514","num_nodes":"1","size_leaf_vector":"1"}},{"base_weights":[-9.925495E-9],"categories":[],"categories_nodes":[],"categories_segments":[],"categories_sizes":[],"default_left":[0],"id":145,"left_children":[-1],"loss_changes":[0E0],"parents":[2147483647],"right_children":[-1],"split_conditions":[-9.925495E-9],"split_indices":[0],"split_type":[0],"sum_hessian":[1.2062888E2],"tree_param":{"num_deleted":"0","num_feature":"3514","num_nodes":"1","size_leaf_vector":"1"}},{"base_weights":[-9.925495E-9],"categories":[],"categories_nodes":[],"categories_segments":[],"categories_sizes":[],"default_left":[0],"id":146,"left_children":[-1],"loss_changes":[0E0],"parents":[2147483647],"right_children":[-1],"split_conditions":[-9.925495E-9],"split_indices":[0],"split_type":[0],"sum_hessian":[1.2062888E2],"tree_param":{"num_deleted":"0","num_feature":"3514","num_nodes":"1","size_leaf_vector":"1"}},{"base_weights":[-9.925495E-9],"categories":[],"categories_nodes":[],"categories_segments":[],"categories_sizes":[],"default_left":[0],"id":147,"left_children":[-1],"loss_changes":[0E0],"parents":[2147483647],"right_children":[-1],"split_conditions":[-9.925495E-9],"split_indices":[0],"split_type":[0],"sum_hessian":[1.2062888E2],"tree_param":{"num_deleted":"0","num_feature":"3514","num_nodes":"1","size_leaf_vector":"1"}},{"base_weights":[-9.925495E-9],"categories":[],"categories_nodes":[],"categories_segments":[],"categories_sizes":[],"default_left":[0],"id":148,"left_children":[-1],"loss_changes":[0E0],"parents":[2147483647],"right_children":[-1],"split_conditions":[-9.925495E-9],"split_indices":[0],"split_type":[0],"sum_hessian":[1.2062888E2],"tree_param":{"num_deleted":"0","num_feature":"3514","num_nodes":"1","size_leaf_vector":"1"}},{"base_weights":[-9.925495E-9],"categories":[],"categories_nodes":[],"categories_segments":[],"categories_sizes":[],"default_left":[0],"id":149,"left_children":[-1],"loss_changes":[0E0],"parents":[2147483647],"right_children":[-1],"split_conditions":[-9.925495E-9],"split_indices":[0],"split_type":[0],"sum_hessian":[1.2062888E2],"tree_param":{"num_deleted":"0","num_feature":"3514","num_nodes":"1","size_leaf_vector":"1"}},{"base_weights":[-9.925495E-9],"categories":[],"categories_nodes":[],"categories_segments":[],"categories_sizes":[],"default_left":[0],"id":150,"left_children":[-1],"loss_changes":[0E0],"parents":[2147483647],"right_children":[-1],"split_conditions":[-9.925495E-9],"split_indices":[0],"split_type":[0],"sum_hessian":[1.2062888E2],"tree_param":{"num_deleted":"0","num_feature":"3514","num_nodes":"1","size_leaf_vector":"1"}},{"base_weights":[-9.925495E-9],"categories":[],"categories_nodes":[],"categories_segments":[],"categories_sizes":[],"default_left":[0],"id":151,"left_children":[-1],"loss_changes":[0E0],"parents":[2147483647],"right_children":[-1],"split_conditions":[-9.925495E-9],"split_indices":[0],"split_type":[0],"sum_hessian":[1.2062888E2],"tree_param":{"num_deleted":"0","num_feature":"3514","num_nodes":"1","size_leaf_vector":"1"}},{"base_weights":[-9.925495E-9],"categories":[],"categories_nodes":[],"categories_segments":[],"categories_sizes":[],"default_left":[0],"id":152,"left_children":[-1],"loss_changes":[0E0],"parents":[2147483647],"right_children":[-1],"split_conditions":[-9.925495E-9],"split_indices":[0],"split_type":[0],"sum_hessian":[1.2062888E2],"tree_param":{"num_deleted":"0","num_feature":"3514","num_nodes":"1","size_leaf_vector":"1"}},{"base_weights":[-9.925495E-9],"categories":[],"categories_nodes":[],"categories_segments":[],"categories_sizes":[],"default_left":[0],"id":153,"left_children":[-1],"loss_changes":[0E0],"parents":[2147483647],"right_children":[-1],"split_conditions":[-9.925495E-9],"split_indices":[0],"split_type":[0],"sum_hessian":[1.2062888E2],"tree_param":{"num_deleted":"0","num_feature":"3514","num_nodes":"1","size_leaf_vector":"1"}},{"base_weights":[-9.925495E-9],"categories":[],"categories_nodes":[],"categories_segments":[],"categories_sizes":[],"default_left":[0],"id":154,"left_children":[-1],"loss_changes":[0E0],"parents":[2147483647],"right_children":[-1],"split_conditions":[-9.925495E-9],"split_indices":[0],"split_type":[0],"sum_hessian":[1.2062888E2],"tree_param":{"num_deleted":"0","num_feature":"3514","num_nodes":"1","size_leaf_vector":"1"}},{"base_weights":[-9.925495E-9],"categories":[],"categories_nodes":[],"categories_segments":[],"categories_sizes":[],"default_left":[0],"id":155,"left_children":[-1],"loss_changes":[0E0],"parents":[2147483647],"right_children":[-1],"split_conditions":[-9.925495E-9],"split_indices":[0],"split_type":[0],"sum_hessian":[1.2062888E2],"tree_param":{"num_deleted":"0","num_feature":"3514","num_nodes":"1","size_leaf_vector":"1"}},{"base_weights":[-9.925495E-9],"categories":[],"categories_nodes":[],"categories_segments":[],"categories_sizes":[],"default_left":[0],"id":156,"left_children":[-1],"loss_changes":[0E0],"parents":[2147483647],"right_children":[-1],"split_conditions":[-9.925495E-9],"split_indices":[0],"split_type":[0],"sum_hessian":[1.2062888E2],"tree_param":{"num_deleted":"0","num_feature":"3514","num_nodes":"1","size_leaf_vector":"1"}},{"base_weights":[-9.925495E-9],"categories":[],"categories_nodes":[],"categories_segments":[],"categories_sizes":[],"default_left":[0],"id":157,"left_children":[-1],"loss_changes":[0E0],"parents":[2147483647],"right_children":[-1],"split_conditions":[-9.925495E-9],"split_indices":[0],"split_type":[0],"sum_hessian":[1.2062888E2],"tree_param":{"num_deleted":"0","num_feature":"3514","num_nodes":"1","size_leaf_vector":"1"}},{"base_weights":[-9.925495E-9],"categories":[],"categories_nodes":[],"categories_segments":[],"categories_sizes":[],"default_left":[0],"id":158,"left_children":[-1],"loss_changes":[0E0],"parents":[2147483647],"right_children":[-1],"split_conditions":[-9.925495E-9],"split_indices":[0],"split_type":[0],"sum_hessian":[1.2062888E2],"tree_param":{"num_deleted":"0","num_feature":"3514","num_nodes":"1","size_leaf_vector":"1"}},{"base_weights":[-9.925495E-9],"categories":[],"categories_nodes":[],"categories_segments":[],"categories_sizes":[],"default_left":[0],"id":159,"left_children":[-1],"loss_changes":[0E0],"parents":[2147483647],"right_children":[-1],"split_conditions":[-9.925495E-9],"split_indices":[0],"split_type":[0],"sum_hessian":[1.2062888E2],"tree_param":{"num_deleted":"0","num_feature":"3514","num_nodes":"1","size_leaf_vector":"1"}},{"base_weights":[-9.925495E-9],"categories":[],"categories_nodes":[],"categories_segments":[],"categories_sizes":[],"default_left":[0],"id":160,"left_children":[-1],"loss_changes":[0E0],"parents":[2147483647],"right_children":[-1],"split_conditions":[-9.925495E-9],"split_indices":[0],"split_type":[0],"sum_hessian":[1.2062888E2],"tree_param":{"num_deleted":"0","num_feature":"3514","num_nodes":"1","size_leaf_vector":"1"}},{"base_weights":[-9.925495E-9],"categories":[],"categories_nodes":[],"categories_segments":[],"categories_sizes":[],"default_left":[0],"id":161,"left_children":[-1],"loss_changes":[0E0],"parents":[2147483647],"right_children":[-1],"split_conditions":[-9.925495E-9],"split_indices":[0],"split_type":[0],"sum_hessian":[1.2062888E2],"tree_param":{"num_deleted":"0","num_feature":"3514","num_nodes":"1","size_leaf_vector":"1"}},{"base_weights":[-9.435442E-9],"categories":[],"categories_nodes":[],"categories_segments":[],"categories_sizes":[],"default_left":[0],"id":162,"left_children":[-1],"loss_changes":[0E0],"parents":[2147483647],"right_children":[-1],"split_conditions":[-9.435442E-9],"split_indices":[0],"split_type":[0],"sum_hessian":[1.2062888E2],"tree_param":{"num_deleted":"0","num_feature":"3514","num_nodes":"1","size_leaf_vector":"1"}},{"base_weights":[-9.435442E-9],"categories":[],"categories_nodes":[],"categories_segments":[],"categories_sizes":[],"default_left":[0],"id":163,"left_children":[-1],"loss_changes":[0E0],"parents":[2147483647],"right_children":[-1],"split_conditions":[-9.435442E-9],"split_indices":[0],"split_type":[0],"sum_hessian":[1.2062888E2],"tree_param":{"num_deleted":"0","num_feature":"3514","num_nodes":"1","size_leaf_vector":"1"}},{"base_weights":[-9.435442E-9],"categories":[],"categories_nodes":[],"categories_segments":[],"categories_sizes":[],"default_left":[0],"id":164,"left_children":[-1],"loss_changes":[0E0],"parents":[2147483647],"right_children":[-1],"split_conditions":[-9.435442E-9],"split_indices":[0],"split_type":[0],"sum_hessian":[1.2062888E2],"tree_param":{"num_deleted":"0","num_feature":"3514","num_nodes":"1","size_leaf_vector":"1"}},{"base_weights":[-9.435442E-9],"categories":[],"categories_nodes":[],"categories_segments":[],"categories_sizes":[],"default_left":[0],"id":165,"left_children":[-1],"loss_changes":[0E0],"parents":[2147483647],"right_children":[-1],"split_conditions":[-9.435442E-9],"split_indices":[0],"split_type":[0],"sum_hessian":[1.2062888E2],"tree_param":{"num_deleted":"0","num_feature":"3514","num_nodes":"1","size_leaf_vector":"1"}},{"base_weights":[-9.435442E-9],"categories":[],"categories_nodes":[],"categories_segments":[],"categories_sizes":[],"default_left":[0],"id":166,"left_children":[-1],"loss_changes":[0E0],"parents":[2147483647],"right_children":[-1],"split_conditions":[-9.435442E-9],"split_indices":[0],"split_type":[0],"sum_hessian":[1.2062888E2],"tree_param":{"num_deleted":"0","num_feature":"3514","num_nodes":"1","size_leaf_vector":"1"}},{"base_weights":[-8.945388E-9],"categories":[],"categories_nodes":[],"categories_segments":[],"categories_sizes":[],"default_left":[0],"id":167,"left_children":[-1],"loss_changes":[0E0],"parents":[2147483647],"right_children":[-1],"split_conditions":[-8.945388E-9],"split_indices":[0],"split_type":[0],"sum_hessian":[1.2062888E2],"tree_param":{"num_deleted":"0","num_feature":"3514","num_nodes":"1","size_leaf_vector":"1"}},{"base_weights":[-8.945388E-9],"categories":[],"categories_nodes":[],"categories_segments":[],"categories_sizes":[],"default_left":[0],"id":168,"left_children":[-1],"loss_changes":[0E0],"parents":[2147483647],"right_children":[-1],"split_conditions":[-8.945388E-9],"split_indices":[0],"split_type":[0],"sum_hessian":[1.2062888E2],"tree_param":{"num_deleted":"0","num_feature":"3514","num_nodes":"1","size_leaf_vector":"1"}},{"base_weights":[-8.945388E-9],"categories":[],"categories_nodes":[],"categories_segments":[],"categories_sizes":[],"default_left":[0],"id":169,"left_children":[-1],"loss_changes":[0E0],"parents":[2147483647],"right_children":[-1],"split_conditions":[-8.945388E-9],"split_indices":[0],"split_type":[0],"sum_hessian":[1.2062888E2],"tree_param":{"num_deleted":"0","num_feature":"3514","num_nodes":"1","size_leaf_vector":"1"}},{"base_weights":[-8.945388E-9],"categories":[],"categories_nodes":[],"categories_segments":[],"categories_sizes":[],"default_left":[0],"id":170,"left_children":[-1],"loss_changes":[0E0],"parents":[2147483647],"right_children":[-1],"split_conditions":[-8.945388E-9],"split_indices":[0],"split_type":[0],"sum_hessian":[1.2062888E2],"tree_param":{"num_deleted":"0","num_feature":"3514","num_nodes":"1","size_leaf_vector":"1"}},{"base_weights":[-8.945388E-9],"categories":[],"categories_nodes":[],"categories_segments":[],"categories_sizes":[],"default_left":[0],"id":171,"left_children":[-1],"loss_changes":[0E0],"parents":[2147483647],"right_children":[-1],"split_conditions":[-8.945388E-9],"split_indices":[0],"split_type":[0],"sum_hessian":[1.2062888E2],"tree_param":{"num_deleted":"0","num_feature":"3514","num_nodes":"1","size_leaf_vector":"1"}},{"base_weights":[-8.945388E-9],"categories":[],"categories_nodes":[],"categories_segments":[],"categories_sizes":[],"default_left":[0],"id":172,"left_children":[-1],"loss_changes":[0E0],"parents":[2147483647],"right_children":[-1],"split_conditions":[-8.945388E-9],"split_indices":[0],"split_type":[0],"sum_hessian":[1.2062888E2],"tree_param":{"num_deleted":"0","num_feature":"3514","num_nodes":"1","size_leaf_vector":"1"}},{"base_weights":[-8.945388E-9],"categories":[],"categories_nodes":[],"categories_segments":[],"categories_sizes":[],"default_left":[0],"id":173,"left_children":[-1],"loss_changes":[0E0],"parents":[2147483647],"right_children":[-1],"split_conditions":[-8.945388E-9],"split_indices":[0],"split_type":[0],"sum_hessian":[1.2062888E2],"tree_param":{"num_deleted":"0","num_feature":"3514","num_nodes":"1","size_leaf_vector":"1"}},{"base_weights":[-8.945388E-9],"categories":[],"categories_nodes":[],"categories_segments":[],"categories_sizes":[],"default_left":[0],"id":174,"left_children":[-1],"loss_changes":[0E0],"parents":[2147483647],"right_children":[-1],"split_conditions":[-8.945388E-9],"split_indices":[0],"split_type":[0],"sum_hessian":[1.2062888E2],"tree_param":{"num_deleted":"0","num_feature":"3514","num_nodes":"1","size_leaf_vector":"1"}},{"base_weights":[-8.945388E-9],"categories":[],"categories_nodes":[],"categories_segments":[],"categories_sizes":[],"default_left":[0],"id":175,"left_children":[-1],"loss_changes":[0E0],"parents":[2147483647],"right_children":[-1],"split_conditions":[-8.945388E-9],"split_indices":[0],"split_type":[0],"sum_hessian":[1.2062888E2],"tree_param":{"num_deleted":"0","num_feature":"3514","num_nodes":"1","size_leaf_vector":"1"}},{"base_weights":[-8.945388E-9],"categories":[],"categories_nodes":[],"categories_segments":[],"categories_sizes":[],"default_left":[0],"id":176,"left_children":[-1],"loss_changes":[0E0],"parents":[2147483647],"right_children":[-1],"split_conditions":[-8.945388E-9],"split_indices":[0],"split_type":[0],"sum_hessian":[1.2062888E2],"tree_param":{"num_deleted":"0","num_feature":"3514","num_nodes":"1","size_leaf_vector":"1"}},{"base_weights":[-8.945388E-9],"categories":[],"categories_nodes":[],"categories_segments":[],"categories_sizes":[],"default_left":[0],"id":177,"left_children":[-1],"loss_changes":[0E0],"parents":[2147483647],"right_children":[-1],"split_conditions":[-8.945388E-9],"split_indices":[0],"split_type":[0],"sum_hessian":[1.2062888E2],"tree_param":{"num_deleted":"0","num_feature":"3514","num_nodes":"1","size_leaf_vector":"1"}},{"base_weights":[-8.945388E-9],"categories":[],"categories_nodes":[],"categories_segments":[],"categories_sizes":[],"default_left":[0],"id":178,"left_children":[-1],"loss_changes":[0E0],"parents":[2147483647],"right_children":[-1],"split_conditions":[-8.945388E-9],"split_indices":[0],"split_type":[0],"sum_hessian":[1.2062888E2],"tree_param":{"num_deleted":"0","num_feature":"3514","num_nodes":"1","size_leaf_vector":"1"}},{"base_weights":[-8.945388E-9],"categories":[],"categories_nodes":[],"categories_segments":[],"categories_sizes":[],"default_left":[0],"id":179,"left_children":[-1],"loss_changes":[0E0],"parents":[2147483647],"right_children":[-1],"split_conditions":[-8.945388E-9],"split_indices":[0],"split_type":[0],"sum_hessian":[1.2062888E2],"tree_param":{"num_deleted":"0","num_feature":"3514","num_nodes":"1","size_leaf_vector":"1"}},{"base_weights":[-8.945388E-9],"categories":[],"categories_nodes":[],"categories_segments":[],"categories_sizes":[],"default_left":[0],"id":180,"left_children":[-1],"loss_changes":[0E0],"parents":[2147483647],"right_children":[-1],"split_conditions":[-8.945388E-9],"split_indices":[0],"split_type":[0],"sum_hessian":[1.2062888E2],"tree_param":{"num_deleted":"0","num_feature":"3514","num_nodes":"1","size_leaf_vector":"1"}},{"base_weights":[-8.945388E-9],"categories":[],"categories_nodes":[],"categories_segments":[],"categories_sizes":[],"default_left":[0],"id":181,"left_children":[-1],"loss_changes":[0E0],"parents":[2147483647],"right_children":[-1],"split_conditions":[-8.945388E-9],"split_indices":[0],"split_type":[0],"sum_hessian":[1.2062888E2],"tree_param":{"num_deleted":"0","num_feature":"3514","num_nodes":"1","size_leaf_vector":"1"}},{"base_weights":[-8.945388E-9],"categories":[],"categories_nodes":[],"categories_segments":[],"categories_sizes":[],"default_left":[0],"id":182,"left_children":[-1],"loss_changes":[0E0],"parents":[2147483647],"right_children":[-1],"split_conditions":[-8.945388E-9],"split_indices":[0],"split_type":[0],"sum_hessian":[1.2062888E2],"tree_param":{"num_deleted":"0","num_feature":"3514","num_nodes":"1","size_leaf_vector":"1"}},{"base_weights":[-8.945388E-9],"categories":[],"categories_nodes":[],"categories_segments":[],"categories_sizes":[],"default_left":[0],"id":183,"left_children":[-1],"loss_changes":[0E0],"parents":[2147483647],"right_children":[-1],"split_conditions":[-8.945388E-9],"split_indices":[0],"split_type":[0],"sum_hessian":[1.2062888E2],"tree_param":{"num_deleted":"0","num_feature":"3514","num_nodes":"1","size_leaf_vector":"1"}},{"base_weights":[-8.945388E-9],"categories":[],"categories_nodes":[],"categories_segments":[],"categories_sizes":[],"default_left":[0],"id":184,"left_children":[-1],"loss_changes":[0E0],"parents":[2147483647],"right_children":[-1],"split_conditions":[-8.945388E-9],"split_indices":[0],"split_type":[0],"sum_hessian":[1.2062888E2],"tree_param":{"num_deleted":"0","num_feature":"3514","num_nodes":"1","size_leaf_vector":"1"}},{"base_weights":[-8.945388E-9],"categories":[],"categories_nodes":[],"categories_segments":[],"categories_sizes":[],"default_left":[0],"id":185,"left_children":[-1],"loss_changes":[0E0],"parents":[2147483647],"right_children":[-1],"split_conditions":[-8.945388E-9],"split_indices":[0],"split_type":[0],"sum_hessian":[1.2062888E2],"tree_param":{"num_deleted":"0","num_feature":"3514","num_nodes":"1","size_leaf_vector":"1"}},{"base_weights":[-8.455335E-9],"categories":[],"categories_nodes":[],"categories_segments":[],"categories_sizes":[],"default_left":[0],"id":186,"left_children":[-1],"loss_changes":[0E0],"parents":[2147483647],"right_children":[-1],"split_conditions":[-8.455335E-9],"split_indices":[0],"split_type":[0],"sum_hessian":[1.2062888E2],"tree_param":{"num_deleted":"0","num_feature":"3514","num_nodes":"1","size_leaf_vector":"1"}},{"base_weights":[-8.455335E-9],"categories":[],"categories_nodes":[],